{"fc1.weight": [[0.14076469838619232, 0.025673752650618553, -0.13062387704849243, -0.02489716000854969, -0.09483344107866287, 0.11176300048828125, -0.015476705506443977, 0.011530405841767788, 0.10454670339822769, 0.060315195471048355, -0.11990104615688324, 0.17563338577747345, 0.10558699816465378, -0.12006701529026031, 0.14460836350917816, 0.04022520035505295, -0.041438132524490356, -0.14230510592460632, -0.02744017355144024, -0.180491104722023, 0.08166075497865677, 0.13458408415317535, -0.07538097351789474, 0.1503007560968399, -0.08094082772731781, 0.010916389524936676, -0.148171067237854, -0.04268530011177063, 0.06138042360544205, 0.06954080611467361], [0.3880394399166107, 0.2789921164512634, 0.5380212068557739, 0.5498412847518921, 0.06621354073286057, 0.1520795077085495, 0.6468619108200073, 0.7642213702201843, 0.22035819292068481, -0.289108008146286, 0.34405532479286194, 0.008984016254544258, 0.35803189873695374, 0.2569924592971802, 0.1266862154006958, 0.003110591322183609, -0.17250661551952362, 0.044001318514347076, -0.1766471564769745, -0.27643370628356934, 0.6352542042732239, 0.6055203676223755, 0.5441907644271851, 0.6859421730041504, 0.23650690913200378, 0.1832091361284256, 0.4129523038864136, 0.7952715158462524, 0.26880961656570435, 0.21018438041210175], [-0.30379870533943176, -0.2896840274333954, -0.23838889598846436, -0.21275058388710022, 0.2940887212753296, -0.03859971836209297, -0.5900481343269348, -0.6271058320999146, 0.3174353241920471, 0.7181219458580017, -0.3331044912338257, 0.020230459049344063, -0.3205355405807495, -0.19450706243515015, 0.3251224756240845, 0.14129109680652618, 0.2403048425912857, 0.11866103112697601, 0.1776886135339737, 0.24087399244308472, -0.5363516807556152, -0.23591573536396027, -0.46293050050735474, -0.36849507689476013, -0.2664114534854889, -0.2949749529361725, -0.4074513018131256, -0.588070809841156, -0.07955582439899445, 0.09787258505821228]], "fc1.bias": [-0.16480892896652222, -1.042132019996643, 1.9788411855697632], "fc2.weight": [[-0.4943545460700989, 2.411314010620117, -2.7146921157836914]], "fc2.bias": [-1.2170158624649048]}