{"fc1.weight": [[0.10848942399024963, -0.15535306930541992, 0.0932842567563057, -0.23990705609321594, 0.393734335899353, -0.034477826207876205, -0.811421275138855, -0.6884862780570984, 0.23361490666866302, 0.5912846922874451, -0.43298548460006714, 0.13412699103355408, -0.49751579761505127, -0.652758777141571, 0.16359734535217285, 0.09703117609024048, 0.16382582485675812, 0.009477979503571987, 0.14305518567562103, 0.2024471014738083, -0.18326593935489655, -0.28715524077415466, -0.17596234381198883, -0.6137738227844238, -0.15775074064731598, -0.12780143320560455, -0.24191445112228394, -0.517885148525238, -0.05060017481446266, -0.06926114112138748], [0.039429403841495514, -0.04707466438412666, 0.12495258450508118, -0.3490455448627472, 0.3852182924747467, -0.08145792037248611, -0.7686195373535156, -0.6060931086540222, 0.17918285727500916, 0.536990225315094, -0.7546659708023071, 0.13369987905025482, -0.46516597270965576, -0.87814861536026, 0.13203716278076172, 0.13092969357967377, 0.22449997067451477, -0.033522505313158035, 0.18402718007564545, 0.36309826374053955, -0.3536777198314667, -0.3002794682979584, -0.26777806878089905, -0.41993770003318787, -0.05265439301729202, -0.34626245498657227, -0.33385416865348816, -0.41206178069114685, -0.16534100472927094, -0.06966734677553177], [0.10827158391475677, -0.3054996728897095, 0.06972853094339371, -0.10695511102676392, 0.17605075240135193, -0.2771459221839905, -0.8883002996444702, -0.6112834215164185, 0.44542157649993896, 0.6222936511039734, -0.5071763396263123, 0.049713172018527985, -0.7008397579193115, -0.8613344430923462, 0.31649327278137207, 0.3331088721752167, 0.1327790468931198, 0.27696263790130615, 0.2712799608707428, 0.47396382689476013, -0.4195622503757477, -0.134367436170578, -0.39386066794395447, -0.36225107312202454, 0.03578072413802147, -0.36709216237068176, -0.3835134208202362, -0.4254016876220703, -0.22614115476608276, 0.041496872901916504]], "fc1.bias": [0.9041044116020203, 1.0529417991638184, 0.9176485538482666], "fc2.weight": [[2.091529369354248, 1.6676290035247803, 1.6464275121688843], [0.11047309637069702, -0.37889689207077026, -0.4798924922943115], [-0.18141016364097595, -0.5380061268806458, -0.2692476212978363]], "fc2.bias": [-6.547465454787016e-05, -0.3802482485771179, -0.239482581615448], "fc3.weight": [[-1.5925105810165405, -0.06651270389556885, -0.3187057673931122]], "fc3.bias": [1.2497429847717285]}