{"fc1.weight": [[0.08358465880155563, 0.1305052489042282, 0.05653233453631401, 0.016412628814578056, 0.06566578149795532, -0.04320710152387619, 0.14608222246170044, 0.17447185516357422, 0.011499366723001003, -0.014527231454849243, -0.0899241641163826, 0.049299102276563644, 0.10687360167503357, 0.20118345320224762, -0.15097728371620178, -0.12248776853084564, 0.020374031737446785, 0.21231745183467865, 0.032757144421339035, 0.06334779411554337, 0.1135401800274849, 0.05340109020471573, 0.2149689644575119, 0.19669176638126373, -0.034996505826711655, -0.05529342591762543, -0.07875683158636093, 0.0658017098903656, 0.04390157014131546, 0.1854286640882492], [-0.17789031565189362, 0.1258758157491684, -0.1032867282629013, 0.01439878810197115, -0.015547230839729309, 0.09771103411912918, -0.1591164469718933, -0.1302877515554428, -0.004945140797644854, 0.08049209415912628, -0.08983815461397171, 0.051333505660295486, -0.04974622651934624, -0.17076928913593292, 0.014538685791194439, -0.045747075229883194, 0.10224686563014984, 0.11330895870923996, 0.1137995645403862, 0.10655190795660019, -0.1421138346195221, -0.17874540388584137, 0.01956617645919323, 0.052706725895404816, -0.1470870077610016, 0.14597120881080627, -0.02467055432498455, -0.1114610880613327, 0.12100696563720703, 0.15402992069721222], [-0.1632351577281952, -0.05401573330163956, -0.1954769641160965, -0.3752758502960205, 0.29620179533958435, -0.08100070059299469, -0.5012266039848328, -0.6799761056900024, 0.27730387449264526, 0.21798846125602722, -0.25964829325675964, 0.27282148599624634, -0.23478388786315918, -0.10738953202962875, 0.3629384934902191, 0.0055963327176868916, -0.03432181477546692, 0.1547045111656189, 0.20258258283138275, 0.1646147221326828, -0.3721197247505188, -0.2559072971343994, -0.2847188413143158, -0.38654541969299316, -0.048543207347393036, -0.3720034956932068, -0.19864512979984283, -0.6621589064598083, -0.014519782736897469, 0.03776043653488159], [0.12610051035881042, 0.09970849752426147, -0.12782296538352966, 0.0809313952922821, -0.09273950755596161, 0.006700590252876282, -0.06613706052303314, -0.15631073713302612, 0.05463738739490509, -0.12182395905256271, 0.1786453127861023, 0.07357966899871826, -0.06315276771783829, -0.10691338032484055, -0.16827821731567383, -0.09204985201358795, -0.11911146342754364, 0.019632488489151, 0.04370160400867462, 0.1583300530910492, 0.024541527032852173, -0.03708703815937042, -0.08139924705028534, -0.02568243443965912, 0.09650874137878418, -0.1760409027338028, -0.16716143488883972, 0.07203447818756104, -0.05632312595844269, -0.05403585731983185], [-0.1176476925611496, -0.12156685441732407, -0.13672688603401184, -0.11112093925476074, -0.16693122684955597, -0.08580179512500763, 0.14647668600082397, -0.10102517902851105, 0.13877332210540771, -0.1537061333656311, 0.021170511841773987, -0.01512637734413147, -0.13787230849266052, 0.004440277814865112, 0.15207591652870178, -0.08248864859342575, 0.1676712930202484, -0.019204571843147278, -0.0577300488948822, 0.0901242196559906, 0.14272499084472656, 0.15758240222930908, 0.10807543992996216, -0.16318386793136597, -0.03718605637550354, 0.019862398505210876, -0.08320754766464233, 0.08531567454338074, -0.040194377303123474, -0.15729036927223206]], "fc1.bias": [0.030542228370904922, -0.13331156969070435, 1.4557400941848755, -0.13285711407661438, -0.046022459864616394], "fc2.weight": [[0.3268234133720398, 0.18955683708190918, -2.1293747425079346, 0.3085100054740906, -0.28699707984924316]], "fc2.bias": [0.4349500238895416]}