{"fc1.weight": [[0.3297498822212219, 0.36519014835357666, 0.12612006068229675, 0.5461487770080566, -0.12943993508815765, 0.4209537208080292, 0.9439399838447571, 0.7314044833183289, 0.07900901883840561, -0.3713293969631195, 0.8857377767562866, -0.21595589816570282, 0.629743218421936, 0.9479972124099731, -0.2019137293100357, 0.06208205968141556, -0.00623288843780756, 0.15798860788345337, -0.22005757689476013, -0.27339664101600647, 0.5897737145423889, 0.29935288429260254, 0.34555473923683167, 0.6887387633323669, 0.3054691255092621, 0.26051050424575806, 0.45224297046661377, 0.7123243808746338, 0.34603995084762573, 0.21559076011180878], [0.060331087559461594, 0.2611100673675537, 0.32394880056381226, 0.6158499717712402, 0.07368415594100952, 0.3430114984512329, 0.9113911986351013, 1.1396137475967407, -0.11671499162912369, -0.5195797085762024, 1.0252825021743774, -0.038352567702531815, 0.6403923034667969, 1.3270879983901978, 0.05611296370625496, -0.004966477397829294, -0.19328272342681885, 0.006323325913399458, 0.14036618173122406, -0.41141340136528015, 0.5032623410224915, 0.6507585048675537, 0.36754924058914185, 0.9884289503097534, 0.2138606309890747, 0.35982778668403625, 0.5206066370010376, 0.47971758246421814, 0.17641198635101318, 0.23356813192367554], [0.11856541782617569, -0.2049615979194641, -0.08209604024887085, -0.004278646782040596, 0.43526846170425415, 0.008068743161857128, -0.744192361831665, -0.77508145570755, 0.3007061779499054, 0.673028826713562, -0.682285487651825, 0.27366119623184204, -0.41350167989730835, -0.8642207384109497, 0.3790648579597473, 0.20822857320308685, 0.339011549949646, 0.31111523509025574, 0.23931030929088593, 0.36481723189353943, -0.12750795483589172, -0.1600130796432495, -0.3166125416755676, -0.33441558480262756, -0.0329713448882103, -0.0708189457654953, -0.29435351490974426, -0.5064267516136169, 0.07766177505254745, -0.01192261278629303], [0.02532298117876053, -0.11062715202569962, -0.032960716634988785, 0.0452953577041626, 0.3135644793510437, 0.013514681719243526, -0.7941804528236389, -0.5981165170669556, 0.2515060603618622, 0.547523558139801, -0.5585606694221497, 0.2872513234615326, -0.2838149070739746, -1.0098124742507935, 0.22141945362091064, 0.29085874557495117, 0.3288317620754242, 0.304307758808136, 0.3907291293144226, 0.4560443162918091, -0.08716590702533722, -0.1205977275967598, -0.23553407192230225, -0.3621715009212494, 0.08337332308292389, -0.038260020315647125, -0.4782961308956146, -0.4331522583961487, -0.14166545867919922, 0.10741070657968521]], "fc1.bias": [-0.5787119269371033, -0.7465224862098694, 1.0062284469604492, 0.8799858689308167], "fc2.weight": [[1.0556585788726807, 0.9419726133346558, -2.1752071380615234, -1.8022007942199707]], "fc2.bias": [-0.9100290536880493]}