{"fc1.weight": [[0.07317572087049484, -0.28852176666259766, 0.03511093556880951, 0.059962812811136246, 0.20060545206069946, -0.11314262449741364, -0.8082554936408997, -0.5948877334594727, 0.3259812295436859, 0.5424110293388367, -0.6717526912689209, -0.044540826231241226, -0.434867262840271, -0.8922559022903442, 0.30402863025665283, -0.00452045351266861, 0.19370071589946747, 0.27000054717063904, 0.2619168162345886, 0.32461610436439514, -0.3192169964313507, -0.1036275252699852, -0.17903411388397217, -0.5779479742050171, 0.12091799080371857, -0.26746952533721924, -0.41140082478523254, -0.21153974533081055, -0.23223042488098145, -0.10922645032405853], [0.16784265637397766, -0.19031380116939545, 0.1410958170890808, -0.2694478929042816, 0.2884719669818878, -0.18607650697231293, -0.7440060973167419, -0.9024145603179932, 0.32733410596847534, 0.6509352326393127, -0.7910768985748291, 0.23635528981685638, -0.4191577434539795, -0.8606144189834595, 0.08100536465644836, 0.2275567203760147, 0.39785245060920715, 0.2443995475769043, 0.0699736475944519, 0.5359939336776733, -0.16400642693042755, -0.2514118254184723, -0.032018233090639114, -0.31456640362739563, -0.20505395531654358, -0.02404443547129631, -0.4666682779788971, -0.36825650930404663, -0.246450737118721, 0.03592549264431]], "fc1.bias": [0.9063467383384705, 0.9576709270477295], "fc2.weight": [[-0.8721916079521179, -1.1676404476165771], [2.4369025230407715, 2.4958982467651367]], "fc2.bias": [1.3139235973358154, 0.004531059879809618], "fc3.weight": [[2.2336888313293457, -1.3070359230041504]], "fc3.bias": [0.2347993403673172]}