{"fc1.weight": [[0.24122843146324158, 0.3518783152103424, 0.2469816356897354, 0.4466741979122162, -0.1568101942539215, 0.02134002186357975, 0.5628828406333923, 0.757937490940094, -0.02215704321861267, -0.34347784519195557, 0.23920929431915283, 0.02889474295079708, 0.4030149281024933, 0.29113858938217163, 0.14277195930480957, -0.4444831907749176, -0.20341679453849792, -0.17451505362987518, -0.07327171415090561, -0.2685788571834564, 0.6805372834205627, 0.6071287989616394, 0.6667311191558838, 0.34899595379829407, 0.5030866265296936, 0.22738073766231537, 0.4479003846645355, 0.535423219203949, 0.27942967414855957, -0.10478230565786362], [0.2559085786342621, 0.17428207397460938, 0.2996612787246704, 0.03357555717229843, -0.13036449253559113, 0.09691882133483887, 0.28406164050102234, 0.18999166786670685, 0.18912509083747864, -0.29134050011634827, 0.014031751081347466, 0.017308376729488373, 0.016058864071965218, 0.04498972371220589, -0.06870430707931519, -0.06835917383432388, 0.027561528608202934, 0.07800578325986862, -0.0693676546216011, -0.14598765969276428, 0.42925307154655457, 0.18341366946697235, 0.1636422872543335, 0.20472495257854462, 0.028710929676890373, -0.09393376857042313, 0.29476678371429443, 0.3217671811580658, 0.22535209357738495, 0.0570170059800148]], "fc1.bias": [-1.2304962873458862, -0.5018218159675598], "fc2.weight": [[2.400641679763794, 0.9957556128501892]], "fc2.bias": [-0.6933104991912842], "fc3.weight": [[2.652191162109375]], "fc3.bias": [-3.3056159019470215]}