{"fc1.weight": [[0.06555019319057465, -0.11375107616186142, 0.1321861743927002, -0.16693812608718872, 0.04669427126646042, -0.15640738606452942, 0.10453210026025772, 0.029055003076791763, 0.13431507349014282, -0.15112921595573425, 0.11446917057037354, -0.12873679399490356, -0.10097236186265945, 0.06848853826522827, -0.0421542227268219, -0.147679403424263, -0.1563049703836441, -0.053051579743623734, 0.03971792384982109, 0.15624545514583588, 0.12610971927642822, -0.004759659990668297, -0.11930830776691437, -0.16638611257076263, 0.14362245798110962, -0.10553694516420364, -0.03416061028838158, -0.15420298278331757, -0.13846741616725922, 0.029061181470751762], [-0.25979405641555786, -0.10503803193569183, -0.2510979473590851, -0.29780349135398865, 0.1868605613708496, -0.2708895802497864, -0.6108411550521851, -0.6649647951126099, 0.33002254366874695, 0.39168912172317505, -0.40552377700805664, 0.1697593331336975, -0.21625404059886932, -0.10873812437057495, 0.39804962277412415, 0.11219555884599686, -0.10022592544555664, 0.010876163840293884, 0.28759875893592834, 0.23845668137073517, -0.5751139521598816, -0.3160567283630371, -0.6114997267723083, -0.47786423563957214, 0.024730024859309196, -0.4021610617637634, -0.4090464413166046, -0.9355688095092773, -0.008456924930214882, 0.09410222619771957], [0.09123924374580383, 0.034009888768196106, -0.013707456178963184, -0.11194678395986557, -0.11639951914548874, -0.1392526477575302, 0.1346408575773239, -0.08410809934139252, -0.011010738089680672, -0.17696765065193176, 0.03800034895539284, -0.06774662435054779, -0.1560201644897461, 0.013380289077758789, -0.17347048223018646, -0.02520296350121498, -0.1528184860944748, 0.10385936498641968, -0.15088817477226257, 0.02694288268685341, 0.0635235607624054, -0.16313202679157257, 0.09264890104532242, 0.1282559484243393, -0.12816698849201202, 0.0037708443123847246, 0.04160071164369583, 0.1232747733592987, 0.13049502670764923, -0.15922077000141144], [-0.14575938880443573, -0.15575994551181793, -0.07783707231283188, -0.035553786903619766, -0.05537295341491699, 0.13066117465496063, -0.10738132148981094, -0.14132793247699738, -0.13032998144626617, -0.0893731564283371, 0.17783977091312408, 0.028601961210370064, -0.032649893313646317, -0.054379187524318695, -0.1338203251361847, -0.04369770362973213, 0.11614398658275604, 0.13935710489749908, 0.13721555471420288, 0.02669406123459339, -0.09783513098955154, -0.10122083127498627, 0.17965291440486908, -0.1642678678035736, 0.05443447083234787, -0.004406559746712446, 0.19426782429218292, 0.12164628505706787, -0.03687306493520737, -0.13797013461589813]], "fc1.bias": [-0.02754981815814972, 2.000894784927368, -0.05889171361923218, 0.07598547637462616], "fc2.weight": [[0.23996880650520325, -2.8105673789978027, -0.3316640555858612, -0.42991378903388977]], "fc2.bias": [1.1112077236175537]}