{"fc1.weight": [[-0.18768559396266937, 0.022900771349668503, -0.11033441871404648, 0.16255763173103333, 0.06840356439352036, 0.0028536899480968714, 0.07770808041095734, -0.004079748876392841, -0.10579616576433182, -0.034336403012275696, -0.10533164441585541, -0.023382175713777542, -0.0017985356971621513, -0.042504340410232544, -0.029558416455984116, 0.1337236911058426, 0.07409091293811798, 0.14304395020008087, 0.14203095436096191, -0.052162472158670425, -0.006832140497863293, -0.10657157748937607, 0.13086628913879395, 0.16763591766357422, -0.12827706336975098, 0.00602428475394845, 0.12804090976715088, -0.13446033000946045, -0.08442076295614243, 0.08909735828638077], [-0.18350324034690857, -0.0107010742649436, -0.053343839943408966, 0.08347833901643753, 0.18060991168022156, 0.015967421233654022, 0.06751763075590134, -0.06406912207603455, 0.07651866227388382, -0.038970597088336945, 0.09322298318147659, -0.06487108021974564, 0.10253871232271194, 0.03575339540839195, 0.06402505934238434, 0.10356684029102325, -0.03875255212187767, -0.026877878233790398, -0.06157441809773445, 0.117508664727211, -0.02725289762020111, -0.09305153787136078, -0.1836530566215515, 0.1648072749376297, -0.11689577996730804, 0.039382122457027435, 0.07247089594602585, 0.032980889081954956, -0.16391418874263763, 0.030788160860538483], [-0.2058609277009964, -0.1342417448759079, -0.1576920747756958, 0.02364046685397625, 0.1488173007965088, -0.12184718996286392, -0.16455399990081787, -0.4527830481529236, 0.11516083776950836, 0.11828168481588364, -0.20362988114356995, 0.15603722631931305, -0.09026236832141876, -0.08506514132022858, 0.2741979956626892, -0.17424052953720093, 0.1568812131881714, 0.049492672085762024, 0.24717365205287933, 0.06450006365776062, -0.1703818291425705, -0.08848398923873901, -0.2758294343948364, -0.2994396984577179, -0.012760549783706665, -0.10663390904664993, -0.09611522406339645, -0.2214089035987854, -0.10500349849462509, 0.07555510103702545], [-0.11128600686788559, -0.1456495076417923, -0.3520406186580658, -0.25576144456863403, 0.1295410692691803, -0.1895197480916977, -0.332748681306839, -0.5852400064468384, 0.11065907031297684, 0.3993496596813202, -0.24186038970947266, 0.24000394344329834, -0.2562950551509857, -0.18991273641586304, 0.08947738260030746, -0.15982480347156525, -0.1096806451678276, 0.08059300482273102, 0.13222022354602814, 0.21640874445438385, -0.17711463570594788, -0.22061455249786377, -0.3220435082912445, -0.24735544621944427, 0.14373762905597687, -0.10276691615581512, -0.3094078004360199, -0.34599941968917847, 0.11525831371545792, -0.14676803350448608]], "fc1.bias": [-0.052833523601293564, -0.13261020183563232, 0.8221884965896606, 1.2369394302368164], "fc2.weight": [[-0.17673085629940033, -0.282122403383255, -1.1299443244934082, -1.7221442461013794]], "fc2.bias": [0.27096086740493774]}