{"fc1.weight": [[0.043431222438812256, -0.012821316719055176, -0.008065521717071533, -0.15156561136245728, 0.049360036849975586, -0.023735344409942627, 0.06940057873725891, -0.11745551228523254, -0.0283544659614563, 0.08032232522964478, 0.07249370217323303, 0.056972160935401917, -0.1527365744113922, 0.16230729222297668, -0.14432339370250702, 0.08967748284339905, 0.03991450369358063, 0.1371828317642212, -0.023217827081680298, -0.03594541549682617, -0.10860210657119751, -0.009544774889945984, -0.17384198307991028, -0.05981753021478653, -0.11700209230184555, -0.08891384303569794, -0.04208722710609436, 0.033637166023254395, 0.17472520470619202, -0.1346442997455597], [-0.003550408873707056, -0.013461947441101074, 0.061269909143447876, 0.07643608003854752, -0.06542851030826569, 0.06120002269744873, 0.05354506894946098, 0.038851432502269745, 0.09933116286993027, -0.16625595092773438, 0.15025782585144043, -0.02989664115011692, -0.159788116812706, -0.04823176562786102, -0.08840138465166092, 0.059722695499658585, 0.14147557318210602, 0.14565888047218323, -0.12187138944864273, 0.020152442157268524, 0.009677787311375141, -0.11691033840179443, -0.1487957090139389, -0.08690714836120605, -0.11350756883621216, -0.14690667390823364, 0.1323695331811905, -0.08581382781267166, -0.00010053778532892466, -0.16018013656139374], [0.10298953205347061, -0.16318544745445251, -0.06851709634065628, -0.4326826333999634, 0.1786276400089264, -0.15587247908115387, -0.059918008744716644, -0.11523289233446121, -0.02899717167019844, -0.15614457428455353, 0.1634068340063095, -0.03712958097457886, -0.00529881939291954, 0.16062971949577332, 0.1007201075553894, 0.1487833559513092, -0.15931589901447296, -0.03358239307999611, 0.15439322590827942, 0.03708210960030556, -0.0735895037651062, 0.14610044658184052, 0.07308746874332428, -0.1763175129890442, -0.13550764322280884, 0.12602448463439941, 0.022267557680606842, 0.11895138770341873, -0.15690167248249054, -0.13816165924072266], [0.1281806379556656, -0.10192176699638367, -0.013860296458005905, 0.37750867009162903, 0.08092599362134933, 0.18115876615047455, -0.16211198270320892, 0.07228980213403702, -0.003846211126074195, 0.14628227055072784, -0.027712436392903328, 0.1812967211008072, 0.1419772505760193, 0.16088753938674927, 0.1089741513133049, -0.024808181449770927, -0.14167065918445587, -0.010176798328757286, -0.011442912742495537, -0.031147779896855354, -0.1202208399772644, 0.1642100065946579, 0.10734976828098297, 0.40006884932518005, -0.17189921438694, 0.06443657726049423, 0.14504419267177582, 0.03279687836766243, 0.09851597249507904, -0.10889638215303421], [0.1719438135623932, -0.013906600885093212, 0.10129354149103165, -0.14753729104995728, 0.1746092289686203, 0.07063653320074081, 0.08800414204597473, 0.049435392022132874, 0.138605535030365, 0.1658148467540741, 0.1771976202726364, 0.028519440442323685, -0.0031867765355855227, 0.15715454518795013, -0.01989040896296501, 0.1366988867521286, 0.011623525992035866, -0.0037330242339521646, -0.06623374670743942, 0.17878952622413635, -0.065285824239254, 0.08074716478586197, 0.07745988667011261, 0.0462280735373497, -0.026631446555256844, -0.06843758374452591, 0.08006742596626282, 0.13034506142139435, 0.11330366134643555, -0.027841156348586082], [0.03837563470005989, 0.07613299041986465, 0.15897272527217865, 0.05729252099990845, 0.01410144567489624, -0.0852123498916626, -0.014213275164365768, 0.03699714317917824, -0.07981408387422562, -0.0810118019580841, 0.03509323298931122, -0.1394273191690445, 0.05488051846623421, -0.02978430688381195, -0.07344654947519302, -0.15297691524028778, 0.1328185498714447, -0.05799384042620659, 0.1296139657497406, -0.033772777765989304, 0.06067008897662163, 0.1857854276895523, 0.1619480401277542, 0.21298345923423767, -0.18065199255943298, -0.07165522873401642, -0.037797100841999054, 0.11906110495328903, 0.1548888236284256, 0.0837537869811058], [-0.12645837664604187, -0.15540286898612976, 0.035911113023757935, -0.10845541954040527, 0.1422487497329712, 0.09235584735870361, 0.06819608807563782, -0.16945984959602356, -0.14235568046569824, 0.09544581174850464, -0.059439629316329956, 0.059220269322395325, 0.17273500561714172, 0.028462886810302734, -0.14480942487716675, -0.15222227573394775, 0.020831257104873657, 0.12238779664039612, 0.00435793399810791, -0.125462144613266, -0.12563949823379517, 0.03512483835220337, 0.017028510570526123, 0.0379488468170166, -0.09258957207202911, -0.13351930677890778, 0.1666046380996704, -0.15319666266441345, 0.10939615964889526, -0.08389535546302795], [-0.1311309039592743, -0.047482118010520935, 0.036346666514873505, -0.2333279848098755, -0.08322601765394211, 0.050073202699422836, -0.005790339782834053, 0.005347974132746458, 0.02231931872665882, 0.060335639864206314, 0.14556123316287994, -0.06694154441356659, -0.02512899413704872, -0.03465377539396286, 0.017132801935076714, -0.13641273975372314, -0.013849395327270031, -0.0340496301651001, -0.07499448955059052, -0.16327711939811707, -0.1354811042547226, 0.15652595460414886, -0.15134257078170776, -0.13722266256809235, -0.14816804230213165, 0.13010068237781525, -0.036876484751701355, -0.07124212384223938, 0.1716606616973877, -0.1691945493221283], [0.022590354084968567, 0.11395740509033203, -0.09522760659456253, -0.08941373229026794, 0.04627189040184021, -0.03458905220031738, -0.04503466188907623, 0.16209450364112854, -0.17001186311244965, -0.1430836319923401, 0.12729552388191223, 0.04153069853782654, 0.058472633361816406, -0.17573964595794678, -0.057657159864902496, -0.16914434731006622, -0.17282871901988983, -0.034406840801239014, -0.14354342222213745, -0.017686128616333008, -0.1167091354727745, -0.056800201535224915, 0.13892748951911926, 0.04329724609851837, -0.16327202320098877, -0.10537878423929214, 0.022942587733268738, -0.06098482757806778, -0.08183864504098892, 0.013885512948036194], [-0.10833871364593506, -0.039252087473869324, 0.17743650078773499, 0.09575250744819641, 0.11698445677757263, -0.07546684145927429, 0.0757652223110199, -0.14009952545166016, -0.09410542249679565, 0.020741671323776245, -0.13833242654800415, -0.10719098150730133, 0.01684066653251648, -0.14211487770080566, -0.019824296236038208, 0.12890580296516418, 0.15198221802711487, -0.02767978608608246, 0.01910056173801422, -0.05449265241622925, -0.0500861257314682, -0.17489203810691833, 0.1330333948135376, -0.12738105654716492, 0.17458972334861755, 0.15524542331695557, 0.025522977113723755, -0.11005811393260956, -0.017029419541358948, -0.1795571893453598], [-0.1428167223930359, -0.1722819060087204, -0.17375853657722473, -0.1390497237443924, 0.12819227576255798, -0.049962565302848816, -0.08172116428613663, -0.1807984560728073, -0.04916644096374512, 0.15109020471572876, -0.045731306076049805, 0.09600675106048584, -0.12139828503131866, 0.14736488461494446, 0.03670750558376312, 0.042435407638549805, -0.15248723328113556, -0.013164982199668884, 0.08247396349906921, -0.14186999201774597, -0.11599334329366684, -0.15538381040096283, 0.05113197863101959, -0.03588448464870453, -0.0036997944116592407, 0.18040889501571655, -0.020659402012825012, 0.12912669777870178, -0.12557145953178406, -0.1184319332242012], [0.12234663963317871, -0.06129002571105957, -0.04003816843032837, 0.12349411845207214, -0.05476684868335724, -0.18211223185062408, 0.1270468831062317, 0.08471211791038513, -0.10976792871952057, 0.06365877389907837, 0.0642509013414383, -0.034315600991249084, -0.14785075187683105, 0.11715388298034668, -0.17686712741851807, 0.09027624130249023, 0.13890081644058228, -0.01449546217918396, -0.04803067445755005, -0.04285651445388794, 0.07111361622810364, 0.14790302515029907, 0.04182446002960205, -0.16896627843379974, -0.16264981031417847, -0.09808406978845596, -0.10784098505973816, 0.05917397141456604, 0.039431944489479065, 0.1554471254348755], [-0.02408735454082489, 0.01814773678779602, 0.11302131414413452, 0.037535205483436584, 0.12132963538169861, 0.178177148103714, -0.04119119048118591, 0.11028453707695007, 0.11125531792640686, 0.17212116718292236, -0.10013590008020401, 0.042866483330726624, -0.011219486594200134, -0.15399356186389923, -0.022949546575546265, -0.07889865338802338, 0.10806167125701904, -0.16348308324813843, 0.06764104962348938, -0.1406605988740921, 0.0484975129365921, -0.1506516933441162, 0.11445367336273193, -0.096343994140625, 0.10137897729873657, 0.0431537926197052, 0.04171939194202423, 0.14428022503852844, -0.04145711660385132, -0.17897485196590424], [0.0361892431974411, 0.1112220287322998, 0.07191017270088196, -0.17384162545204163, -0.02310602366924286, -0.0876036137342453, 0.024204999208450317, 0.15600311756134033, -0.02135564386844635, 0.17470520734786987, -0.07080241292715073, 0.1103217601776123, 0.09819427132606506, -0.013528123497962952, -0.04766526818275452, 0.0027222037315368652, 0.17207854986190796, 0.17255499958992004, 0.12473562359809875, -0.012890726327896118, 0.15590324997901917, -0.01841394603252411, 0.170525461435318, -0.12181714177131653, 0.06350845098495483, 0.15456730127334595, -0.10692878812551498, -0.056038618087768555, 0.0019793063402175903, -0.12251056730747223], [-0.17217642068862915, 0.06971985101699829, -0.10076892375946045, -0.06145874410867691, 0.1413804292678833, 0.07558780908584595, 0.029969602823257446, -0.17693530023097992, -0.046444833278656006, 0.05787701904773712, -0.04043520987033844, 0.1262562870979309, -0.0030772238969802856, 0.036869123578071594, -0.0922345221042633, 0.12490963935852051, 0.04413452744483948, 0.09928879141807556, 0.16291722655296326, 0.03630286455154419, 0.02038504183292389, -0.0250396728515625, -0.12096475809812546, -0.13395337760448456, 0.07080507278442383, 0.1634826362133026, -0.003987044095993042, 0.008913248777389526, -0.04646234214305878, 0.0523403137922287], [0.13904492557048798, 0.10859569162130356, 0.0023031895980238914, 0.1125548779964447, 0.17004439234733582, -0.04298393055796623, 0.0695076584815979, 0.08831565827131271, 0.008082075044512749, -0.04405109956860542, 0.16878339648246765, 0.006120690144598484, -0.059096843004226685, -0.13385114073753357, 0.01960160583257675, -0.12884113192558289, 0.14123480021953583, 0.017629485577344894, 0.07706789672374725, 0.047445911914110184, 0.09497272223234177, -0.1390935629606247, 0.1339859962463379, 0.1515541970729828, -0.024028435349464417, -0.09130118042230606, 0.09193930774927139, -0.031034884974360466, 0.11205699294805527, -0.1094755157828331]], "fc1.bias": [0.1693747639656067, -0.169497549533844, -0.00701836496591568, 0.022850172594189644, -0.06786759197711945, -0.10058135539293289, 0.029579073190689087, 0.04121648147702217, -0.008595839142799377, 0.0798608660697937, -0.13795502483844757, -0.008976742625236511, 0.05873975157737732, 0.04177173972129822, 0.10992440581321716, -0.029592303559184074], "fc2.weight": [[0.00817456841468811, -0.24246641993522644, 0.058981239795684814, -0.2572171986103058, -0.1566179096698761, -0.16608643531799316, -0.058214277029037476, 0.12328213453292847, 0.06498977541923523, 0.22548118233680725, 0.003104180097579956, 0.0950528085231781, -0.13037970662117004, -0.05209934711456299, 0.1790144145488739, -0.38902178406715393], [-0.044959068298339844, 0.12680357694625854, 0.18771085143089294, -0.07905721664428711, 0.13044342398643494, -0.08727183938026428, -0.1428825557231903, 0.07976999878883362, 0.19745463132858276, 0.0685097873210907, -0.007223218679428101, -0.19367891550064087, 0.10153871774673462, 0.05811208486557007, 0.22046834230422974, -0.2211913764476776], [0.08262169361114502, -0.1970173716545105, -0.07327248901128769, -0.22814588248729706, 0.10391506552696228, 0.08821885287761688, 0.08125537633895874, -0.06927313655614853, 0.04389509558677673, 0.13754019141197205, -0.20888110995292664, 0.09382125735282898, 0.11722332239151001, 0.05108413100242615, 0.06479346752166748, 0.19209855794906616], [-0.16848981380462646, -0.13200831413269043, 0.035628970712423325, -0.29637473821640015, 0.049507394433021545, -0.15782098472118378, -0.24438166618347168, 0.1887783259153366, -0.018496960401535034, -0.16295155882835388, 0.048914045095443726, -0.1126527190208435, 0.18052029609680176, 0.11908969283103943, -0.0531868040561676, -0.1943763792514801], [0.22683411836624146, -0.19272874295711517, 0.03103760816156864, -0.08934415876865387, 0.24222946166992188, 0.1099533960223198, -0.16504067182540894, 0.17882440984249115, -0.032319724559783936, -0.10606709122657776, -0.049725234508514404, 0.11308902502059937, -0.047219663858413696, 0.009780347347259521, -0.17445588111877441, -0.158140167593956], [-0.19709858298301697, -0.15976428985595703, -0.24159729480743408, -0.15566721558570862, 0.17867210507392883, -0.24498271942138672, 0.19592806696891785, -0.17576095461845398, 0.04985097050666809, 0.0994892418384552, -0.17856365442276, 0.10978180170059204, -0.11241966485977173, 0.17176789045333862, 0.15674170851707458, 0.14252063632011414], [0.12681451439857483, -0.05700621008872986, -0.04624943435192108, -0.33716192841529846, 0.022429555654525757, -0.15291622281074524, 0.11891424655914307, -0.11933475732803345, -0.1231759786605835, 0.12995395064353943, 0.13703277707099915, 0.22407057881355286, 0.19605979323387146, -0.2127317488193512, -0.03870239853858948, -0.4089439809322357], [0.10263359546661377, -0.24422040581703186, -0.24795156717300415, -0.24712815880775452, 0.08300323039293289, -0.10272863507270813, 0.0026890039443969727, 0.16539999842643738, -0.19120043516159058, -0.1478913426399231, 0.03613114356994629, 0.004568696022033691, 0.20061048865318298, -0.1311977505683899, 0.10913780331611633, -0.261879026889801]], "fc2.bias": [-0.045823756605386734, 0.18095287680625916, 0.1259707808494568, -0.06708111613988876, -0.18989792466163635, -0.2047373652458191, 0.2199111133813858, -0.1348136067390442], "fc3.weight": [[0.022064462304115295, -0.10786107182502747, -0.0740073099732399, 0.31347233057022095, 0.13274449110031128, -0.025919973850250244, 0.10219401121139526, 0.05289241671562195]], "fc3.bias": [-0.5814588069915771]}