{"fc1.weight": [[-0.11560193449258804, -0.053243011236190796, 0.020564913749694824, -0.15836875140666962, 0.12545979022979736, -0.11080344021320343, 0.1400843858718872, 0.05967934429645538, -0.034239813685417175, -0.1597796529531479, 0.0302179753780365, -0.10199657082557678, 0.1577920913696289, -0.15359073877334595, -0.04822762310504913, -0.10062024742364883, -0.11742392927408218, -0.09522520750761032, -0.018100515007972717, 0.01235109567642212, 0.03092697262763977, 0.09329518675804138, -0.07457397133111954, -0.113279327750206, -0.03846815228462219, 0.1720508635044098, -0.022305577993392944, -0.15370236337184906, 0.14325851202011108, 0.044423431158065796], [0.38688573241233826, 0.12732821702957153, 0.4973224997520447, 0.2919888496398926, 0.003500467399135232, 0.3754437565803528, 0.40989404916763306, 0.6663773655891418, -0.009892330504953861, -0.15890736877918243, 0.1675330549478531, -0.23710118234157562, 0.11673929542303085, 0.0639050304889679, -0.17814263701438904, 0.13501900434494019, 0.15837252140045166, 0.13620924949645996, -0.1474011093378067, -0.10339176654815674, 0.5877591371536255, 0.2789195477962494, 0.43744999170303345, 0.3626418113708496, 0.05990113317966461, 0.21317234635353088, 0.21270698308944702, 0.47234681248664856, 0.19258493185043335, 0.1417643129825592], [-0.0711420550942421, -0.03918012976646423, -0.0904880091547966, -0.05960560590028763, 0.16642707586288452, -0.1623820662498474, 0.08712169528007507, -0.1640954315662384, -0.08710486441850662, -0.037178635597229004, 0.012650981545448303, -0.029649659991264343, -0.08345723152160645, -0.08143467456102371, -0.11104800552129745, -0.1274378001689911, -0.11374764144420624, 0.17507579922676086, -0.08602368831634521, -0.15182650089263916, 0.12548372149467468, 0.070831298828125, 0.1255863904953003, -0.18160559237003326, -0.17378908395767212, -0.12958136200904846, -0.09618069231510162, -0.00040206313133239746, 0.07897397875785828, 0.1068902313709259]], "fc1.bias": [-0.15703295171260834, -0.8183700442314148, -0.10558419674634933], "fc2.weight": [[0.13270974159240723, 1.72385835647583, 0.09239435195922852]], "fc2.bias": [-1.6332499980926514]}