{"fc1.weight": [[0.2355014681816101, 0.4085286259651184, 0.0047380379401147366, 0.2642585337162018, 0.0027826433070003986, 0.11721291393041611, 0.6537154912948608, 0.6541375517845154, -0.013358300551772118, -0.30730652809143066, 0.6087116599082947, 0.19492119550704956, 0.5744513273239136, 1.02884840965271, 0.13858644664287567, -0.025691255927085876, -0.02528180554509163, 0.047551438212394714, -0.038033824414014816, -0.2993738353252411, 0.29592469334602356, 0.4356822967529297, 0.39471253752708435, 0.6352788209915161, 0.4506402313709259, 0.3458039462566376, 0.37605980038642883, 0.33060553669929504, 0.28407052159309387, 0.07906899601221085], [0.18996472656726837, 0.03748378902673721, 0.2666061222553253, -0.1311766803264618, 0.23858849704265594, -0.05648163706064224, -0.457335889339447, -0.4732987880706787, 0.18979060649871826, 0.4853784441947937, -0.41751861572265625, 0.28293704986572266, -0.33334970474243164, -0.7961976528167725, 0.22480112314224243, 0.2614734172821045, 0.21312296390533447, 0.2961180806159973, 0.16528162360191345, 0.3872555196285248, -0.21407954394817352, -0.22613106667995453, -0.27025461196899414, -0.3353910744190216, -0.028066879138350487, 0.00453165965154767, -0.24219413101673126, -0.24549971520900726, -0.10269707441329956, 0.1954062283039093], [0.16741155087947845, 0.17565836012363434, 0.2667379081249237, -0.0960974246263504, 0.4646587371826172, -0.028019914403557777, -0.48521482944488525, -0.5775524377822876, 0.2166861742734909, 0.7684800624847412, -0.5128816366195679, 0.445258229970932, -0.3546116054058075, -0.6590813994407654, 0.35007140040397644, 0.4995660185813904, 0.29841238260269165, 0.37891533970832825, 0.3425460159778595, 0.6283689737319946, -0.01117576751857996, -0.01415505912154913, -0.1261397898197174, -0.4268816113471985, 0.2711799442768097, -0.16995780169963837, -0.24012374877929688, -0.21119289100170135, 0.16064399480819702, 0.13413557410240173], [-0.14924022555351257, -0.05652818828821182, 0.08393003791570663, 0.06210818141698837, 0.1407955139875412, -0.0476219467818737, 0.07576163113117218, -0.1820535808801651, 0.060398489236831665, 0.07363972067832947, 0.10753064602613449, -0.11494188010692596, -0.05898866802453995, 0.033926982432603836, -0.13998591899871826, -0.15547828376293182, -0.1858808547258377, -5.389518992160447e-05, 0.1031297966837883, 0.03665013983845711, 0.0008854480111040175, 0.0533679835498333, -0.12497526407241821, 0.009005468338727951, -0.055602144449949265, -0.10064452886581421, 0.14721158146858215, -0.15149375796318054, 0.016509462147951126, -0.1706760823726654]], "fc1.bias": [-0.5068789720535278, 0.6490660309791565, 0.9516807198524475, -0.11276909708976746], "fc2.weight": [[1.0962903499603271, -0.7456245422363281, 0.18991203606128693, -0.3755897283554077], [1.1408733129501343, -0.5156890749931335, -0.1562780886888504, -0.10149644315242767], [1.1597813367843628, 0.03389160707592964, -0.2966720461845398, 0.045970261096954346], [-0.9465728402137756, 1.3598078489303589, 0.9179630875587463, -0.11834456771612167]], "fc2.bias": [-0.41042837500572205, -0.06381494551897049, -0.2779305577278137, 0.9561949968338013], "fc3.weight": [[1.4347236156463623, 1.2017865180969238, 1.2762815952301025, -1.564146876335144]], "fc3.bias": [-0.18881362676620483]}