{"fc1.weight": [[-0.16600379347801208, -0.14552460610866547, 0.13645271956920624, 0.06880456209182739, -0.06546222418546677, 0.043939296156167984, 0.028808506205677986, -0.021632278338074684, 0.14247587323188782, -0.007675997447222471, 0.1278441995382309, -0.14436489343643188, -0.07547835260629654, 0.03026747517287731, 0.0917261391878128, -0.07876662909984589, 0.12980583310127258, -0.15508157014846802, -0.07362127304077148, 0.13235734403133392, -0.13890430331230164, -0.17209531366825104, -0.04838845878839493, -0.1532372534275055, 0.04719430208206177, -0.03421073779463768, -0.05560540780425072, 0.09741071611642838, 0.0067760818637907505, -0.16781088709831238], [0.16259948909282684, 0.4516974091529846, 0.4214170575141907, 0.49545565247535706, -0.17666158080101013, 0.02260497584939003, 0.6480933427810669, 0.7959721088409424, 0.13639618456363678, -0.2836097478866577, 0.25613319873809814, -0.15342499315738678, 0.33724141120910645, 0.3722493052482605, -0.00918281264603138, -0.217731773853302, -0.10227566957473755, -0.2211570292711258, -0.07009962946176529, -0.27477145195007324, 0.6418824195861816, 0.5422096848487854, 0.6035549640655518, 0.6715917587280273, 0.3478141129016876, 0.11488623917102814, 0.24344591796398163, 0.6517201066017151, 0.16605399549007416, 0.0986434742808342], [0.14894425868988037, 0.042330436408519745, 0.16470474004745483, 0.08546976745128632, 0.12233126908540726, 0.16836711764335632, -0.1288147270679474, -0.01810852624475956, 0.06511405110359192, -0.04520992934703827, -0.131794735789299, -0.05914195626974106, -0.09243790805339813, -0.06551112979650497, -0.13842715322971344, -0.0558578222990036, 0.10376174747943878, -0.08087435364723206, 0.07086515426635742, -0.15001168847084045, -0.12340568006038666, 0.010269023478031158, 0.16136299073696136, -0.17396187782287598, 0.07932039350271225, 0.028714951127767563, -0.15350745618343353, -0.13846179842948914, 0.07897946238517761, -0.09154538065195084], [0.1150890588760376, -0.12921270728111267, 0.12546110153198242, -0.09860912710428238, 0.0510273203253746, 0.04456515237689018, -0.14747342467308044, -0.10161851346492767, -0.06031852588057518, -0.017183642834424973, 0.08823215961456299, -0.07947532087564468, 0.0245466660708189, -0.09966788440942764, -0.09622941166162491, 0.1115298792719841, -0.05341529846191406, -0.1710946261882782, 0.0013613036135211587, -0.03131377696990967, 0.0430649071931839, -0.09523778408765793, -0.0003508303198032081, -0.09301671385765076, -0.13152575492858887, 0.03493442386388779, 0.04982702434062958, 0.017817635089159012, 0.16884839534759521, 0.006836045533418655]], "fc1.bias": [-0.0005719672190025449, -1.0718563795089722, -0.18701022863388062, 0.0037802010774612427], "fc2.weight": [[0.38892996311187744, 2.300957441329956, -0.3884199857711792, 0.44697752594947815]], "fc2.bias": [-0.8044543266296387], "fc3.weight": [[2.537388563156128]], "fc3.bias": [-2.9235012531280518]}