{"fc1.weight": [[0.340191513299942, 0.26147276163101196, 0.2816723585128784, 0.23811234533786774, 0.07484041899442673, 0.3507869243621826, 0.43611377477645874, 0.4654560387134552, -0.16504059731960297, -0.2948940098285675, 0.1521577388048172, -0.03408845141530037, 0.28545239567756653, 0.27413323521614075, 0.0688224732875824, -0.13850811123847961, -0.01670614443719387, 0.18931329250335693, -0.10836213827133179, 0.02638303115963936, 0.297517865896225, 0.19962018728256226, 0.3223578631877899, 0.3726657032966614, -0.06487070769071579, 0.21950238943099976, 0.2621403634548187, 0.5448298454284668, -0.012261290103197098, 0.030585145577788353], [0.24263840913772583, 0.16421028971672058, 0.30457624793052673, 0.27834028005599976, -0.053353555500507355, 0.10904432088136673, 0.1795421689748764, 0.3529883623123169, -0.04666666314005852, -0.30314022302627563, 0.29640546441078186, -0.04001333564519882, 0.13643869757652283, 0.2578497529029846, -0.08245497941970825, 0.029869385063648224, -0.15372440218925476, 0.12358946353197098, -0.17155145108699799, -0.047151099890470505, 0.4565148949623108, 0.17876796424388885, 0.2854522168636322, 0.4519776999950409, 0.19550377130508423, 0.28831374645233154, 0.13836146891117096, 0.50128573179245, 0.2773059606552124, 0.12342981994152069], [-0.08747357875108719, 0.0492563433945179, 0.0020646748598665, -0.21277232468128204, 0.05403715744614601, -0.2076188176870346, -0.41617345809936523, -0.3109060525894165, 0.2171475738286972, 0.33097541332244873, -0.118423230946064, 0.0036048528272658587, 0.055109359323978424, 0.016318654641509056, 0.03427405282855034, -0.04691057279706001, -0.13028018176555634, 0.05505795404314995, 0.22946512699127197, 0.21598592400550842, -0.3141476809978485, 0.03833969682455063, -0.29166337847709656, -0.20213191211223602, 0.2647421658039093, -0.19663037359714508, -0.2835868299007416, -0.39776965975761414, 0.07039906084537506, 0.07719046622514725]], "fc1.bias": [-0.538407564163208, -0.561488687992096, 1.0977510213851929], "fc2.weight": [[1.4296164512634277, 1.3428303003311157, -1.480055332183838]], "fc2.bias": [-1.4125818014144897]}