{"fc1.weight": [[0.24289865791797638, 0.23101668059825897, 0.16765081882476807, 0.4582539498806, -0.21397244930267334, 0.16969160735607147, 0.8868165016174316, 1.001718282699585, -0.004672456998378038, -0.6060691475868225, 0.8393372297286987, -0.2533568739891052, 0.6588950753211975, 1.277343988418579, -0.0016669784672558308, -0.13992951810359955, -0.19742338359355927, -0.39114731550216675, -0.26765671372413635, -0.5138071775436401, 0.3942599594593048, 0.37098607420921326, 0.25740885734558105, 0.9002448320388794, 0.04707961902022362, 0.16847892105579376, 0.3748025894165039, 0.6413474082946777, 0.049940623342990875, 0.15429632365703583], [-0.04613548889756203, 0.18002888560295105, 0.10895578563213348, 0.2619434595108032, -0.17914444208145142, 0.19952325522899628, 0.6120337247848511, 0.839154064655304, -0.17052045464515686, -0.4910007417201996, 0.7900208234786987, -0.0788322314620018, 0.5101925730705261, 1.0265698432922363, 0.05151212960481644, -0.13476531207561493, -0.22966475784778595, -0.4038306772708893, -0.17703598737716675, -0.5185897946357727, 0.42653989791870117, 0.21917197108268738, 0.26314806938171387, 0.6214773058891296, 0.07358815521001816, 0.31537050008773804, 0.41401565074920654, 0.44243982434272766, 0.22630858421325684, 0.07134407758712769], [-0.06305225938558578, -0.040833935141563416, 0.08798938989639282, -0.04981859028339386, 0.08549290895462036, -0.03988656401634216, -0.1238313615322113, 0.07431560754776001, 0.027991920709609985, 0.08140039443969727, 0.1813848912715912, 0.12464940547943115, 0.17307686805725098, 0.009771883487701416, -0.15705260634422302, -0.12808075547218323, -0.11341028660535812, -0.16089320182800293, -0.09151485562324524, -0.168071910738945, -0.16844573616981506, -0.10909803956747055, -0.1799878180027008, -0.11206630617380142, 0.0696171224117279, 0.15227651596069336, -0.05430902540683746, -0.05310694873332977, 0.09748607873916626, -0.09007678925991058]], "fc1.bias": [-0.9084903001785278, -0.656928539276123, -0.15907718241214752], "fc2.weight": [[1.8604683876037598, 2.0350167751312256, 0.09900778532028198]], "fc2.bias": [-2.029636859893799]}