{"fc1.weight": [[-0.1327458918094635, -0.29800987243652344, -0.15104623138904572, -0.17679773271083832, 0.18121172487735748, -0.09189958870410919, -0.6248888373374939, -0.791427493095398, 0.12208840996026993, 0.7316141128540039, -0.4085696041584015, -0.11318478733301163, -0.36200132966041565, -0.21741600334644318, 0.003310948144644499, 0.34175020456314087, 0.017026424407958984, 0.20136462152004242, 0.06317071616649628, 0.16241928935050964, -0.6659159660339355, -0.5932121276855469, -0.6133474707603455, -0.35503995418548584, -0.4648420214653015, 0.0023569257464259863, -0.3236282467842102, -0.7719093561172485, -0.41468238830566406, 0.015650855377316475], [-0.10705140978097916, 0.14553207159042358, 0.03385554254055023, -0.04895399510860443, -0.16836726665496826, -0.10277789831161499, -0.05959688127040863, 0.07674965262413025, -0.166401207447052, 0.10544368624687195, 0.166072279214859, 0.05649712681770325, -0.18127314746379852, 0.02381931245326996, -0.07367833703756332, 0.0577528178691864, -0.006824612617492676, 0.08933034539222717, -0.014854192733764648, 0.032931551337242126, 0.07273933291435242, -0.1352686733007431, 0.03044748306274414, 0.16269472241401672, 0.12748432159423828, 0.011364445090293884, -0.03210587799549103, 0.07549208402633667, -0.16054999828338623, -0.05498950183391571], [0.1583590805530548, 0.02349536120891571, -0.002361997961997986, -0.14370667934417725, -0.11833135783672333, 0.025249406695365906, -0.1372394561767578, -0.05279530584812164, -0.0899411290884018, 0.056265056133270264, 0.027891382575035095, -0.17628131806850433, 0.06025958061218262, -0.01646101474761963, -0.08844995498657227, 0.1344965100288391, -0.12019550800323486, -0.1665317565202713, 0.01990509033203125, -0.09909415990114212, -0.07414233684539795, -0.15966863930225372, -0.045374542474746704, 0.14505350589752197, -0.16565079987049103, -0.12345719337463379, -0.0399533212184906, -0.1444919854402542, 0.03417542576789856, -0.03628090023994446]], "fc1.bias": [1.9915356636047363, -0.1814488023519516, 0.006112203001976013], "fc2.weight": [[2.8567121028900146, 0.07494843006134033, -0.15723049640655518]], "fc2.bias": [-3.7583522498607635e-06], "fc3.weight": [[-2.8976492881774902]], "fc3.bias": [2.491431474685669]}