{"fc1.weight": [[-0.16497379541397095, 0.0008056902443058789, -0.1298198252916336, 0.13452544808387756, 0.017812153324484825, -0.052266012877225876, -0.09492147713899612, 0.06186546012759209, -0.12397678196430206, 0.07042500376701355, 0.09557010233402252, 0.09265979379415512, 0.04429462552070618, -0.16096735000610352, 0.11786730587482452, -0.06261348724365234, -0.05536647140979767, -0.022652607411146164, 0.11910171806812286, 0.13281646370887756, 0.02513657696545124, 0.071332648396492, -0.17283833026885986, -0.0008203822071664035, -0.1731879860162735, 0.059078630059957504, -0.13155655562877655, -0.06714174151420593, 0.11959661543369293, 0.16701316833496094], [-0.44626903533935547, -0.36368298530578613, -0.34248730540275574, -0.38089561462402344, 0.17182105779647827, -0.2531532943248749, -0.9019027948379517, -0.9336524605751038, 0.3416858911514282, 0.6515389084815979, -0.3660023510456085, 0.20872697234153748, -0.2030215561389923, -0.3637693226337433, 0.1258455365896225, 0.3043597936630249, 0.18249750137329102, 0.14264576137065887, 0.10072177648544312, 0.3084218502044678, -0.548693835735321, -0.6669617891311646, -0.592258095741272, -0.6450166702270508, -0.12208492308855057, -0.3331964612007141, -0.5110217332839966, -0.8768748044967651, -0.387188583612442, -0.07027595490217209]], "fc1.bias": [-0.13337211310863495, 2.606259346008301], "fc2.weight": [[0.470608115196228, -3.6062138080596924]], "fc2.bias": [1.9009714126586914]}