{"fc1.weight": [[-0.12956231832504272, 0.08341900259256363, 0.11036407947540283, -0.09357642382383347, -0.11565127968788147, -0.12345273047685623, -0.08865916728973389, -0.02281879633665085, 0.018378306180238724, 0.0016593930777162313, -0.04719148948788643, 0.12030266225337982, 0.010601158253848553, -0.1056281179189682, -0.04590947553515434, -0.10649847239255905, -0.0642392709851265, -0.17171595990657806, 0.03550969809293747, -0.14059482514858246, 0.07279781997203827, 0.13450339436531067, -0.13387371599674225, -0.09537754207849503, -0.14180152118206024, 0.04944688081741333, 0.03565290942788124, -0.09356485307216644, 0.11324874311685562, 0.07720033079385757], [-0.18221624195575714, -0.01749490387737751, -0.09590154886245728, -0.04626517742872238, 0.10105486959218979, -0.028074413537979126, -0.1442728191614151, 0.10797622054815292, -0.16734322905540466, -0.05652732029557228, 0.0592755563557148, 0.16618680953979492, 0.1671825498342514, -0.05154331773519516, 0.0672338455915451, -0.16415488719940186, -0.03891214728355408, -0.06494230031967163, 0.05611473321914673, -0.11947546154260635, 0.01728341169655323, 0.08232782036066055, 0.12101529538631439, -0.04771091789007187, 0.1607363224029541, -0.18283867835998535, -0.06805670261383057, 0.04176048934459686, 0.04236629605293274, 0.08302059769630432], [-0.11844269186258316, 0.11840100586414337, -0.16878601908683777, -0.12384311109781265, -0.006143177859485149, -0.17530634999275208, -0.1728287786245346, -0.161134734749794, 0.15371809899806976, 0.04560784250497818, -0.05738721787929535, -0.003450842807069421, -0.15838047862052917, -0.17215150594711304, -0.12358544766902924, -0.17532938718795776, 0.12064661085605621, -0.06199664995074272, -0.045891448855400085, -0.15588237345218658, 0.032378848642110825, -0.020583298057317734, -0.12234662473201752, 0.11797742545604706, 0.161062091588974, -0.12844249606132507, 0.10467276722192764, -0.02694396860897541, 0.0029590209014713764, 0.08076681196689606], [-0.03328651189804077, 0.15512293577194214, 0.11233165860176086, -0.11851472407579422, -0.11110779643058777, -0.18089450895786285, 0.05845405161380768, -0.13732989132404327, -0.15302984416484833, -0.11702404916286469, -0.18050594627857208, -0.14865976572036743, 0.16284975409507751, 0.10198327898979187, 0.16176548600196838, -0.08856327831745148, -0.07488307356834412, -0.06405941396951675, 0.003565773367881775, -0.13104544579982758, 0.026765748858451843, -0.11701157689094543, 0.028850391507148743, 0.16723749041557312, 0.03083661198616028, 0.13317766785621643, -0.13003098964691162, -0.0257655531167984, -0.11273562908172607, -0.02025604248046875], [-0.30133190751075745, -0.33072739839553833, -0.43501824140548706, -0.4137619137763977, 0.20468437671661377, -0.2114366590976715, -0.8785750269889832, -0.7837610244750977, 0.3073328733444214, 0.5662699341773987, -0.32817354798316956, 0.2618367671966553, -0.42989256978034973, -0.4296426475048065, 0.25564083456993103, 0.21042458713054657, 0.1542532742023468, -0.03376523777842522, 0.1958562135696411, 0.37050941586494446, -0.5932421088218689, -0.5824269652366638, -0.6823612451553345, -0.5241149663925171, -0.15143795311450958, -0.42256221175193787, -0.5061761140823364, -0.7783932685852051, -0.29761096835136414, -0.015344735234975815]], "fc1.bias": [-0.03878685459494591, -0.0639183297753334, 0.040327854454517365, -0.17578314244747162, 2.5203185081481934], "fc2.weight": [[-0.1206936314702034, -0.07119401544332504, -0.04439643397927284, 0.24982893466949463, -3.454392433166504]], "fc2.bias": [1.7625452280044556]}