{"fc1.weight": [[-0.24137058854103088, 0.07231581956148148, 0.059563301503658295, -0.25822708010673523, 0.16067786514759064, -0.16895411908626556, -0.3160138428211212, -0.14384497702121735, -0.044911131262779236, 0.1765950620174408, -0.0173770934343338, 0.1959277093410492, -0.13880066573619843, -0.17319835722446442, 0.16177445650100708, -0.10867195576429367, 0.03586643561720848, -0.10087283700704575, 0.1309986561536789, 0.23348785936832428, -0.3318573534488678, -0.18208129703998566, -0.31915712356567383, -0.05320557579398155, 0.1427968293428421, -0.23298585414886475, -0.09656950831413269, -0.2022514045238495, -0.15154941380023956, 0.05554409325122833], [0.08206838369369507, -0.03329231217503548, 0.12192635238170624, -0.012054361402988434, -0.024226533249020576, 0.10196270793676376, -0.16736198961734772, -0.17991232872009277, 0.03341714292764664, 0.019892102107405663, 0.012592408806085587, -0.11209839582443237, 0.14519141614437103, -0.11317107826471329, -0.08093962073326111, -0.15431825816631317, -0.1819317787885666, 0.04383554682135582, -0.07372196763753891, 0.1116456612944603, 0.17529095709323883, 0.05847521871328354, 0.15871606767177582, -0.12781371176242828, 0.0955156683921814, 0.09878464043140411, -0.07351089268922806, -0.013870453462004662, -0.10996267944574356, 0.01730523817241192], [-0.31151822209358215, -0.14227987825870514, -0.3186597228050232, -0.21085123717784882, 0.18155501782894135, -0.3376200497150421, -0.5037766695022583, -0.37638506293296814, 0.17187480628490448, 0.33173030614852905, -0.21594059467315674, 0.11022644490003586, -0.2781480848789215, 0.051487524062395096, 0.22229906916618347, 0.09906583279371262, 0.10998348891735077, 0.15568172931671143, 0.08776973187923431, 0.13220757246017456, -0.4261308014392853, -0.07984068989753723, -0.36553633213043213, -0.17134883999824524, -0.12891221046447754, -0.15920871496200562, -0.23764923214912415, -0.43079841136932373, -0.19660785794258118, 0.05745464563369751], [-0.11584824323654175, -0.17076274752616882, 0.11884504556655884, 0.03109118342399597, -0.06357979029417038, -0.15958356857299805, 0.04693843424320221, -0.07892128825187683, -0.14476877450942993, -0.022914379835128784, -0.1554807722568512, 0.08994290232658386, -0.12029893696308136, -0.06214502453804016, -0.1806168556213379, -0.025394707918167114, -0.056375011801719666, 0.10074320435523987, -0.041313886642456055, 0.12290620803833008, 0.15939772129058838, 0.03724008798599243, -0.06257561594247818, -0.1504122018814087, -0.12773901224136353, -0.0615072175860405, -0.11441776901483536, 0.09666973352432251, -0.0589447021484375, -0.006683126091957092]], "fc1.bias": [0.8015149235725403, -0.15920644998550415, 1.439162254333496, -0.06977904587984085], "fc2.weight": [[-1.1642601490020752, 0.0010379761224612594, -1.9349186420440674, 0.06238579750061035]], "fc2.bias": [0.5874967575073242]}