{"fc1.weight": [[0.24343153834342957, 0.3296023905277252, 0.3654085695743561, 0.849688708782196, -0.3389850854873657, 0.4326760768890381, 1.3691033124923706, 1.4240915775299072, -0.40428727865219116, -0.8170873522758484, 1.3165562152862549, -0.4039166569709778, 1.12637460231781, 1.6984091997146606, -0.527373194694519, -0.2388022094964981, -0.41599446535110474, -0.22175468504428864, -0.40116217732429504, -0.6047930121421814, 0.6754626631736755, 0.20386303961277008, 0.6721462607383728, 1.05329167842865, -0.01884780079126358, 0.5004761815071106, 0.9525362253189087, 0.8585765957832336, 0.02919331192970276, -0.18843087553977966], [0.09082615375518799, -0.13580621778964996, -0.022479891777038574, 0.08758193254470825, -0.08449753373861313, -0.0199078768491745, -0.01589207351207733, -0.043194010853767395, -0.09257098287343979, -0.162753626704216, -0.14758512377738953, -0.09776147454977036, 0.17633703351020813, -0.08818601816892624, -0.12260366976261139, 0.04425492882728577, 0.050319328904151917, 0.10003417730331421, 0.13877835869789124, 0.10167083144187927, -0.18102248013019562, 0.016192257404327393, 0.11059486865997314, -0.016874507069587708, -0.10758716613054276, 0.17405524849891663, -0.06828782707452774, -0.10394760966300964, -0.164600670337677, 0.008155286312103271]], "fc1.bias": [-0.9335184097290039, 0.04041513800621033], "fc2.weight": [[1.7851862907409668, -0.5362609028816223]], "fc2.bias": [-2.207674264907837]}