{"fc1.weight": [[0.27887824177742004, -0.09525365382432938, 0.21626359224319458, 0.08489692956209183, 0.04132751002907753, 0.045572228729724884, 0.22897781431674957, 0.23990271985530853, -0.012827939353883266, 0.061939649283885956, 0.12807965278625488, -0.10144297033548355, 0.13718757033348083, 0.153318390250206, 0.07096562534570694, -0.10880620777606964, -0.0697665736079216, 0.18988898396492004, 0.0759466290473938, -0.14253826439380646, -0.03563506901264191, 0.2074631154537201, 0.295795738697052, 0.2699306905269623, 0.15031811594963074, 0.08908004313707352, 0.07759451866149902, 0.16950829327106476, -0.14836205542087555, 0.0821593627333641], [-0.22035793960094452, -0.07836517691612244, -0.0777553915977478, -0.015434357337653637, 0.2138475477695465, -0.1646677851676941, -0.10689974576234818, -0.39969274401664734, 0.19752438366413116, 0.3204180598258972, -0.0801062136888504, 0.2834152579307556, 0.05119840055704117, -0.06203618273139, 0.11932454258203506, -0.0897635668516159, -0.08789576590061188, 0.16739298403263092, 0.08784438669681549, 0.00657676812261343, -0.36533355712890625, -0.1557118147611618, -0.25937360525131226, -0.29841870069503784, 0.023492543026804924, 0.08461122214794159, -0.35403022170066833, -0.17438331246376038, -0.06814885884523392, 0.03115168772637844], [0.3450126349925995, 0.11457087099552155, 0.4628799259662628, 0.39748984575271606, -0.16787205636501312, 0.06966619938611984, 0.41139155626296997, 0.5903629660606384, 0.02216915600001812, -0.0978502556681633, 0.376016765832901, 0.07622124999761581, 0.2511971592903137, 0.09998857975006104, -0.07122569531202316, -0.05253658443689346, -0.14483635127544403, 0.052731867879629135, -0.01884535700082779, -0.1683271825313568, 0.5055462121963501, 0.20036771893501282, 0.3073762059211731, 0.5290164947509766, 0.29616355895996094, 0.3479304015636444, 0.347548246383667, 0.7300771474838257, 0.07004819810390472, 0.01610439084470272], [0.2527279555797577, 0.19924204051494598, -0.005346809048205614, 0.08023691922426224, -0.017399486154317856, -0.018785785883665085, 0.06542699784040451, 0.30655360221862793, 0.1019938513636589, -0.09317707270383835, 0.08926758170127869, 0.11247830837965012, -0.07261563092470169, -0.056893471628427505, -0.10235612839460373, -0.053665805608034134, 0.16915364563465118, 0.18279580771923065, 0.0415237657725811, -0.20307035744190216, 0.3259361684322357, 0.1057136133313179, 0.3141118586063385, 0.3244576156139374, 0.04810590296983719, -0.04609481245279312, 0.23014451563358307, 0.3771844506263733, 0.10221175849437714, 0.11566179990768433], [0.05655169114470482, -0.054634466767311096, -0.06573521345853806, -0.09915284812450409, 0.23428718745708466, -0.011860995553433895, -0.25324490666389465, -0.4225710928440094, 0.18924866616725922, 0.36050885915756226, 0.04156031459569931, 0.07218977063894272, -0.16206973791122437, -0.2161228209733963, -0.002671266905963421, -0.06026346608996391, -0.04945795610547066, -0.03603596240282059, -0.064678855240345, 0.09917717427015305, -0.28170499205589294, -0.1868477612733841, -0.31287190318107605, -0.27280086278915405, 0.20914147794246674, -0.12112312018871307, -0.3424682319164276, -0.35566452145576477, 0.1681625097990036, 0.01839512027800083]], "fc1.bias": [-0.15197262167930603, 0.9608568549156189, -0.7389336824417114, -0.42396172881126404, 0.995274007320404], "fc2.weight": [[0.6115280985832214, -1.3059383630752563, 1.8130242824554443, 0.8705755472183228, -1.3715951442718506]], "fc2.bias": [-1.3313816785812378]}