{"fc1.weight": [[0.15057720243930817, -0.026070447638630867, 0.07442156225442886, 0.14946410059928894, 0.003922623116523027, 0.031522952020168304, -0.16554038226604462, -0.05641559511423111, 0.08031909912824631, -0.1013915091753006, -0.15635687112808228, 0.05897476524114609, -0.003230839502066374, 0.1386936902999878, 0.16318735480308533, 0.0405796617269516, 0.12095482647418976, 0.07100117206573486, -0.008499084040522575, -0.06532835960388184, 0.015914443880319595, 0.013149261474609375, -0.07286794483661652, 0.15167236328125, 0.11646091192960739, -0.08908595889806747, 0.08654366433620453, 0.04590574651956558, 0.028628401458263397, 0.16751709580421448], [-0.11780306696891785, 0.03072112798690796, -0.010052934288978577, 0.07476827502250671, -0.10953541845083237, -0.11181187629699707, 0.12748852372169495, 0.10000735521316528, -0.055971816182136536, -0.09325724095106125, -0.040981754660606384, 0.10552802681922913, 0.04116435348987579, -0.13493449985980988, -0.014977678656578064, 0.1746513545513153, 0.02267603576183319, 0.040798112750053406, -0.13098274171352386, -0.03999827802181244, -0.054304152727127075, 0.0022223293781280518, -0.12272396683692932, -0.05173081159591675, -0.05907376855611801, 0.1156856119632721, -0.16576969623565674, -0.12666389346122742, -0.04474116861820221, -0.12171017378568649], [-0.07407044619321823, 0.028833642601966858, -0.12230249494314194, -0.10600294172763824, -0.12211436033248901, 0.1491839587688446, 0.07769116759300232, -0.12064847350120544, -0.09965077042579651, 0.07202035188674927, 0.026875093579292297, -0.1326504647731781, -0.04479201138019562, -0.16681551933288574, -0.16081468760967255, 0.02792498469352722, -0.17273110151290894, -0.1445852518081665, -0.0010357052087783813, 0.013862445950508118, -0.09476426243782043, 0.1557847261428833, 0.11932337284088135, -0.0955037996172905, -0.11980842798948288, -0.022501960396766663, -0.15407782793045044, 0.03245425224304199, -0.020785242319107056, 0.012410536408424377], [-0.03702825307846069, -0.11021105200052261, 0.040197595953941345, -0.119530588388443, 0.152114599943161, 0.025686919689178467, 0.15813809633255005, 0.16655248403549194, 0.05066370964050293, 0.17347601056098938, -0.11110366135835648, -0.05910162627696991, -0.057131484150886536, -0.11004692316055298, 0.0049402713775634766, 0.16726553440093994, 0.1269300878047943, -0.014845982193946838, 0.0150928795337677, 0.15973636507987976, 0.0524163693189621, 0.0929197371006012, -0.13870733976364136, 0.039371490478515625, 0.09554031491279602, -0.10041490197181702, -0.03570489585399628, -0.1592141091823578, 0.013462543487548828, 0.10924378037452698], [-0.13826943933963776, -0.11082383990287781, -0.1949290931224823, -0.3558270037174225, -0.15977269411087036, -0.052742816507816315, 0.1524176299571991, -0.004090611357241869, 0.022286182269454002, 0.14017696678638458, 0.14485964179039001, 0.100730299949646, 0.16693931818008423, -0.1400362104177475, 0.111952044069767, -0.1800527274608612, 0.14802712202072144, -0.15759214758872986, -0.15566731989383698, -0.042152877897024155, -0.085355743765831, -0.11829543858766556, 0.08412006497383118, -0.5395146012306213, 0.07121291756629944, -0.10751208662986755, -0.14442457258701324, 0.05573038384318352, -0.037871018052101135, 0.14717449247837067], [-0.03842752426862717, 0.1258271336555481, 0.02967878431081772, 0.6450304388999939, 0.16005495190620422, 0.04508845508098602, -0.13351435959339142, -0.06370358914136887, -0.09885351359844208, -0.05432473495602608, -0.09061066806316376, 0.03638646751642227, -0.04668564349412918, 0.062415916472673416, 0.1649935096502304, 0.07385479658842087, -0.05172956734895706, -0.12806373834609985, -0.006047407630831003, 0.17607936263084412, -0.06114048510789871, -0.06993173062801361, 0.1506444811820984, 1.0463117361068726, -0.027512436732649803, 0.08598089963197708, 0.0478651262819767, -0.022999968379735947, -0.14049506187438965, -0.00781354121863842], [0.140186607837677, 0.15567538142204285, 0.03645569086074829, -0.05094395577907562, 0.02288787066936493, -0.08249737322330475, 0.06246185302734375, -0.16232870519161224, -0.07117863744497299, 0.14445525407791138, -0.1517678052186966, 0.05973315238952637, 0.022242307662963867, 0.007329210638999939, -0.04306033253669739, 0.12447625398635864, -0.07745398581027985, 0.1811547875404358, -0.14641588926315308, -0.09946437925100327, 0.03710766136646271, 0.014082327485084534, 0.16538015007972717, -0.03098560869693756, -0.11587980389595032, -0.1785200536251068, 0.06230185925960541, 0.14344683289527893, 0.16633257269859314, 0.04046854376792908], [0.015485018491744995, -0.18130779266357422, 0.004659593105316162, -0.13082677125930786, 0.13915395736694336, 0.15609315037727356, 0.14069077372550964, -0.16158375144004822, -0.16865956783294678, -0.07804267108440399, 0.15141400694847107, 0.055287957191467285, 0.13721460103988647, -0.1166929230093956, -0.06607759743928909, -0.002948656678199768, 0.06452850997447968, -0.11126723885536194, -0.10905300825834274, -0.1565711498260498, -0.0488816499710083, -0.11325638741254807, -0.08883623033761978, -0.04238171875476837, 0.13075405359268188, 0.11747139692306519, -0.052887171506881714, 0.10198596119880676, -0.1768248826265335, 0.10980334877967834]], "fc1.bias": [-0.15661120414733887, 0.1476680338382721, 0.052737459540367126, -0.14738120138645172, -0.009030435234308243, -0.09630165994167328, 0.028392866253852844, -0.08444958925247192], "fc2.weight": [[0.49625474214553833, 0.023387610912322998, 0.29556170105934143, -0.10284978151321411, 0.07405009865760803, 0.4620100259780884, 0.24702611565589905, 0.005150258541107178]], "fc2.bias": [-0.294879674911499]}