{"fc1.weight": [[-0.13000768423080444, -0.038576480001211166, 0.09908250719308853, 0.2316315919160843, -0.07442772388458252, -0.014378057792782784, 0.17129123210906982, -0.08332061767578125, 0.026464024558663368, 0.07982949167490005, -0.18118292093276978, -0.11887013912200928, 0.1792086362838745, 0.19080804288387299, 0.10805145651102066, -0.1253955215215683, -0.16505067050457, -0.06099122390151024, 0.09700490534305573, -0.05051911249756813, 0.008201731368899345, 0.1257837563753128, 0.17217791080474854, 0.26032671332359314, 0.17915333807468414, -0.013290893286466599, -0.05488879606127739, -0.08577272295951843, -0.0946870818734169, 0.0990426242351532], [-0.13755331933498383, 0.031002076342701912, -0.029451800510287285, -0.07690122723579407, -0.021388843655586243, 0.15138280391693115, 0.02515166439116001, -0.009171680547297001, 0.050422243773937225, 0.06392959505319595, -0.01618393324315548, -0.05896671116352081, -0.15989962220191956, -0.16622674465179443, -0.04447168484330177, 0.15093164145946503, 0.06959401816129684, -0.04079831391572952, 0.17348670959472656, -0.033014655113220215, -0.08718933910131454, -0.0352395623922348, -0.010123249143362045, 0.223984956741333, 0.1126389354467392, -0.020101947709918022, -0.1331787258386612, -0.06124592199921608, 0.060251180082559586, -0.15232644975185394], [-0.0977889746427536, -0.03002663515508175, 0.16425833106040955, 0.05158719792962074, 0.09649991244077682, 0.14054040610790253, -0.05658003315329552, -0.047353729605674744, -0.09676734358072281, 0.10755488276481628, 0.13568222522735596, -0.12649187445640564, 0.0886838510632515, -0.17243801057338715, -0.017381420359015465, -0.0005963011062704027, -0.11500176787376404, -0.023340418934822083, -0.09733975678682327, -0.11864505708217621, -0.17526623606681824, -0.030922649428248405, 0.1668749451637268, -0.030904557555913925, -0.14095444977283478, -0.05825301632285118, 0.11404253542423248, -0.05406031012535095, -0.16709667444229126, -0.14677178859710693], [-0.11399206519126892, -0.016340535134077072, -0.0689302384853363, 0.0700422078371048, -0.17364875972270966, -0.014436017721891403, -0.1486954241991043, 0.13263098895549774, -0.05852757766842842, -0.0449063703417778, -0.06954802572727203, -0.051757607609033585, 0.1356714963912964, -0.16228888928890228, -0.1819598376750946, 0.1121954619884491, -0.13822463154792786, -0.10189566761255264, 0.12915104627609253, 0.015228615142405033, 0.16736435890197754, -0.035752590745687485, 0.13486264646053314, -0.07410814613103867, -0.04937925189733505, -0.13177740573883057, -0.09817985445261002, -0.05668540298938751, -0.1261102557182312, 0.027014827355742455], [0.02703028917312622, 0.15619878470897675, 0.14004512131214142, 0.17380517721176147, 0.15249228477478027, 0.09525188058614731, 0.0865241065621376, 0.1595953404903412, 0.10350967943668365, -0.17286114394664764, -0.01611841283738613, 0.0026174436789005995, -0.11354954540729523, -0.1394733339548111, -0.053656212985515594, 0.1441640555858612, 0.014329344965517521, -0.04683724418282509, -0.17103882133960724, 0.01604258082807064, -0.07263803482055664, -0.09829724580049515, 0.06978777050971985, 0.03305292874574661, 0.06663233786821365, 0.1163148432970047, -0.12842623889446259, 0.05799419432878494, -0.1495669037103653, -0.03159474581480026], [-0.09253765642642975, -0.06402480602264404, -0.08108366280794144, -0.1845014989376068, -0.16122664511203766, -0.046257007867097855, 0.057924311608076096, 0.05282873660326004, -0.09213380515575409, 0.1684713512659073, -0.07785733044147491, -0.13206523656845093, -0.056066568940877914, 0.07687678933143616, -0.04062734916806221, 0.040559425950050354, -0.05386343598365784, 0.1765957921743393, 0.09370237588882446, -0.06492780148983002, 0.07479207217693329, 0.13014818727970123, 0.01950756460428238, 0.0708024650812149, 0.04270470514893532, -0.12822020053863525, 0.1668417751789093, 0.10387697070837021, 0.0674331784248352, 0.12901455163955688], [-0.12567099928855896, 0.10343983769416809, -0.025454504415392876, -0.03510703146457672, 0.04031737893819809, -0.09033377468585968, 0.011527382768690586, 0.14791886508464813, 0.121861033141613, -0.0534258596599102, -0.17927822470664978, 0.160134419798851, -0.037261780351400375, -0.07116120308637619, -0.10201270878314972, -0.11393850296735764, -0.05281618982553482, 0.1281268149614334, -0.16507059335708618, -0.1353607475757599, 0.12067845463752747, 0.0858868807554245, -0.13722121715545654, 0.10413609445095062, 0.009765909053385258, -0.04373388737440109, 0.138197660446167, -0.004983894061297178, 0.007542921230196953, 0.06420063227415085], [0.169048011302948, 0.061674267053604126, -0.0032191872596740723, -0.03484883904457092, 0.15911811590194702, 0.06675231456756592, 0.04944644868373871, -0.1422276496887207, 0.068322092294693, -0.12384777516126633, 0.02216280996799469, -0.03920912742614746, 0.059919536113739014, -0.13154786825180054, 0.048169881105422974, 0.13452142477035522, 0.009600207209587097, -0.135521799325943, 0.08959919214248657, 0.07498681545257568, -0.005773603916168213, -0.14812679588794708, -0.1480281949043274, -0.09514735639095306, -0.06538380682468414, 0.12451532483100891, -0.09894779324531555, -0.031427860260009766, 0.030056193470954895, -0.022225886583328247], [-0.10356200486421585, 0.1824798285961151, -0.05095908045768738, 0.11784341931343079, -0.04788587987422943, -0.17495010793209076, 0.17803415656089783, -0.0841558501124382, -0.03520914912223816, 0.11453524231910706, 0.15458545088768005, 0.17943879961967468, -0.16822314262390137, -0.010107934474945068, 0.053780943155288696, 0.04237388074398041, -0.1718367338180542, -0.16396449506282806, -0.1699146181344986, -0.14947138726711273, -0.060263462364673615, 0.16232925653457642, 0.08425435423851013, -0.16083918511867523, -0.10534150153398514, -0.11112523078918457, -0.13044169545173645, -0.04365716874599457, 0.14967235922813416, -0.08849768340587616], [-0.02491048537194729, -0.002793875988572836, 0.018915383145213127, -0.32376766204833984, -0.08607904613018036, 0.046224869787693024, -0.15112623572349548, -0.11831709742546082, 0.07385341823101044, 0.046231307089328766, -0.11645197123289108, 0.001210644724778831, 0.17711582779884338, -0.09951397031545639, 0.09044359624385834, -0.018078073859214783, -0.14171969890594482, -0.03364355117082596, 0.04416681081056595, -0.16227421164512634, -0.010096951387822628, 0.07702617347240448, 0.08526996523141861, -0.0282546728849411, -0.12395618110895157, 0.0789886862039566, -0.14110128581523895, -0.11395754665136337, -0.03952934965491295, -0.05543612316250801], [-0.0962914526462555, 0.07799363136291504, -0.14650052785873413, -0.09692665189504623, 0.09153386950492859, -0.16540400683879852, -0.011322170495986938, -0.0023360103368759155, -0.023728981614112854, 0.017321854829788208, 0.17316409945487976, -0.139649897813797, -0.09966041147708893, 0.011019989848136902, -0.1743902564048767, -0.047792449593544006, 0.11649000644683838, 0.0807773768901825, -0.15919668972492218, -0.10363379120826721, 0.004175335168838501, -0.1494511216878891, 0.16988146305084229, 0.0012514591217041016, -0.05142983794212341, 0.12550640106201172, -0.04057192802429199, 0.1381208896636963, 0.03236612677574158, 0.03871525824069977], [0.17142419517040253, 0.18605026602745056, -0.1073097288608551, 0.34307754039764404, -0.10733938962221146, 0.052240509539842606, -0.15481382608413696, 0.11828332394361496, 0.1712954342365265, -0.11699078232049942, -0.17846275866031647, -0.10779079049825668, -0.03620430827140808, -0.07952877134084702, 0.18191683292388916, -0.020322782918810844, 0.14034301042556763, 0.15792903304100037, -0.18216781318187714, -0.07451191544532776, -0.0908598080277443, 0.14755403995513916, 0.025731420144438744, 0.1779022365808487, 0.10210064053535461, -0.1670260727405548, -0.0037483791820704937, 0.10644283890724182, 0.1621086299419403, 0.12356702983379364], [-0.06526470929384232, 0.014632705599069595, -0.0183790922164917, -0.15804818272590637, 0.03773071989417076, -0.1544557511806488, 0.0719657614827156, -0.0788780152797699, -0.14179272949695587, 0.16964781284332275, 0.15589547157287598, -0.060091059654951096, 0.07909385114908218, -0.08217428624629974, -0.0742003470659256, -0.06350564956665039, 0.1747419536113739, 0.17333604395389557, -0.14772450923919678, 0.1394137293100357, -0.0952143445611, 0.09713219851255417, 0.029757555574178696, 0.07836616039276123, -0.16025730967521667, -0.08218420296907425, -0.08644602447748184, 0.009268257766962051, 0.16300559043884277, 0.05569886788725853], [0.02259834110736847, 0.04636909067630768, -0.1217670887708664, -0.18026474118232727, -0.008081823587417603, -0.03529082238674164, -0.1556256115436554, -0.14156830310821533, -0.05542968213558197, -0.18056538701057434, 0.08989742398262024, 0.10876050591468811, -0.17968052625656128, -0.11539825797080994, -0.06848009675741196, -0.05960817635059357, 0.002428486943244934, 0.1811215877532959, 0.17001989483833313, 0.008939668536186218, -0.15589025616645813, -0.1159287691116333, 0.08401337265968323, 0.06697285175323486, 0.09745028614997864, -0.10745684057474136, 0.011570662260055542, 0.08425995707511902, -0.04033397138118744, 0.062258318066596985], [-0.1408742219209671, -0.18310800194740295, 0.1226511150598526, -0.1712484061717987, 0.09575927257537842, -0.0912569984793663, -0.11950818449258804, -0.11135745793581009, -0.16869011521339417, -0.015213695354759693, -0.015192803926765919, 0.09074016660451889, -0.1724567413330078, -0.08089073747396469, 0.00887624267488718, 0.06164850294589996, 0.15187805891036987, 0.08309529721736908, -0.1682780534029007, 0.00881686620414257, -0.1850098967552185, 0.1698734164237976, 0.06510338187217712, -0.061875954270362854, -0.04646792635321617, 0.07999688386917114, -0.16317735612392426, 0.08726062625646591, -0.0004734169924631715, -0.11269941926002502], [0.017884090542793274, 0.012373089790344238, 0.06238119304180145, -0.1414186954498291, -0.05225159227848053, 0.08697357773780823, 0.06486023962497711, -0.12034603953361511, -0.17860147356987, 0.17666617035865784, -0.13012319803237915, -0.017400726675987244, 0.09509146213531494, -0.08154495805501938, -0.16310980916023254, -0.12828534841537476, -0.18251045048236847, 0.012576743960380554, -0.10123411566019058, 0.02710479497909546, -0.07703717052936554, 0.05843554437160492, -0.1099119633436203, -0.11513838917016983, 0.17424604296684265, -0.06536520272493362, -0.10991720855236053, 0.006610304117202759, -0.1378490924835205, -0.0710502490401268], [-0.09642214328050613, -0.10381661355495453, 0.06600045412778854, 0.021592844277620316, 0.001954808831214905, -0.1238083690404892, -0.09453751891851425, -0.117457315325737, -0.044180646538734436, 0.0258993711322546, 0.08920224010944366, -0.08356620371341705, 0.1688772737979889, -0.10760216414928436, 0.009903889149427414, -0.02332797460258007, -0.10367977619171143, 0.06847825646400452, 0.006497215013951063, 0.13504734635353088, -0.05677655339241028, 0.17618106305599213, -0.053732968866825104, 0.1546114981174469, -0.028609013184905052, 0.05967680737376213, -0.12898597121238708, 0.021100806072354317, -0.16538041830062866, -0.06105911731719971], [0.14561837911605835, 4.088878631591797e-05, -0.05619466304779053, -0.14023107290267944, -0.1796848326921463, 0.05574961006641388, -0.1752113699913025, -0.13337011635303497, 0.15644696354866028, -0.059824034571647644, -0.14359113574028015, -0.032506510615348816, -0.1001078262925148, -0.00291229784488678, 0.029351919889450073, 0.07231295108795166, -0.11562084406614304, -0.08400435000658035, 0.0016642063856124878, -0.11869467794895172, -0.04413756728172302, -0.16014593839645386, 0.020243048667907715, -0.09770689159631729, 0.05519746243953705, 0.02127695083618164, 0.1514250934123993, -0.02262134850025177, 0.17163613438606262, 0.004392564296722412], [0.13931909203529358, -0.06097322702407837, 0.018957138061523438, 0.13204583525657654, -0.006520748138427734, 0.1445217728614807, 0.05209013819694519, 0.15176990628242493, 0.105671226978302, 0.1767069697380066, 0.03920702636241913, -0.08544211834669113, 0.0042944252490997314, -0.048836007714271545, -0.05638112127780914, -0.11691612005233765, -0.006504744291305542, -0.17012815177440643, 0.09282761812210083, -0.04631417989730835, -0.16207298636436462, -0.16551826894283295, -0.03341233730316162, -0.12984377145767212, -0.0697508379817009, 0.08941185474395752, 0.07337161898612976, -0.12423710525035858, -0.13617384433746338, 0.13079139590263367], [0.03837336599826813, -0.07577169686555862, -0.09394153952598572, 0.08081835508346558, 0.06504517793655396, -0.03283320367336273, 0.090960294008255, 0.037169843912124634, -0.005303904414176941, 0.12503713369369507, -0.00198189914226532, -0.153817281126976, -0.013747543096542358, -0.03419220447540283, 0.16379901766777039, -0.11738836765289307, 0.09464824199676514, -0.06473855674266815, -0.008490368723869324, -0.1210014745593071, 0.005573183298110962, -0.047553107142448425, -0.11066057533025742, -0.10364913195371628, 0.040999189019203186, 0.025379672646522522, -0.12612363696098328, 0.16372185945510864, 0.08979848027229309, 0.16278037428855896], [-0.007128849625587463, 0.003975793719291687, 0.021344393491744995, -0.12342499941587448, 0.13134154677391052, 0.15844780206680298, -0.13551664352416992, -0.1534343659877777, 0.12702339887619019, 0.18244516849517822, 0.17153501510620117, 0.17858651280403137, -0.015358567237854004, 0.030399873852729797, -0.11203823238611221, 0.05190207064151764, -0.07437071204185486, 0.0827871561050415, -0.002965375781059265, 0.058549657464027405, 0.08880150318145752, -0.17827999591827393, 0.13038700819015503, -0.08899234980344772, -0.09416377544403076, -0.07810603082180023, -0.12519457936286926, -0.15047888457775116, -0.13359974324703217, -0.08432002365589142], [-0.04641498625278473, 0.12296253442764282, 0.10818350315093994, -0.09563945233821869, 0.02938239276409149, 0.072756826877594, -0.1657288819551468, -0.1821248084306717, -0.047112852334976196, -0.017399072647094727, 0.010378703474998474, -0.04850754141807556, 0.045643940567970276, 0.019458353519439697, -0.12024898827075958, 0.1814553141593933, -0.0582883283495903, 0.1591792106628418, 0.13084030151367188, 0.11118543148040771, -0.08258701860904694, 0.006069973111152649, 0.09150800108909607, -0.08420839160680771, 0.17185711860656738, 0.13588657975196838, 0.08128714561462402, 0.12443220615386963, 0.033967047929763794, 0.15023589134216309], [-0.05773921683430672, 0.05345804989337921, 0.12626157701015472, -0.017216116189956665, 0.04567050561308861, -0.13913500308990479, 0.17842775583267212, -0.1596335768699646, -0.03559701889753342, 0.1468716412782669, 0.030020123347640038, -0.1414860188961029, -0.17134079337120056, -0.15612474083900452, 0.05124364793300629, 0.047448042780160904, -0.18240337073802948, 0.044405896216630936, -0.07673519104719162, -0.17043915390968323, -0.09626539051532745, 0.1578136533498764, 0.09170322865247726, -0.18310017883777618, 0.13991761207580566, -0.15523532032966614, -0.06216703727841377, -0.1780988723039627, 0.022808151319622993, 0.03775869682431221], [0.12591901421546936, 0.17515861988067627, 0.0006691664457321167, -0.030731379985809326, 0.032395750284194946, -0.028671681880950928, -0.035190775990486145, -0.062398672103881836, 0.15332847833633423, 0.03844746947288513, 0.027981966733932495, 0.11141112446784973, 0.063545361161232, -0.09583772718906403, -0.1045704036951065, -0.13059140741825104, 0.0639927089214325, -0.014411643147468567, 0.17709791660308838, 0.16106152534484863, 0.042889684438705444, 0.11477646231651306, 0.12189996242523193, -0.14230382442474365, 0.10274237394332886, 0.15137803554534912, 0.08675792813301086, 0.15656304359436035, 0.039903104305267334, -0.055535927414894104], [-0.025226101279258728, 0.07396233081817627, -0.08348600566387177, -0.12111478298902512, -0.0898895263671875, -0.15296009182929993, -0.1104811504483223, -0.16902734339237213, 0.1713152825832367, -0.06929410994052887, -0.05430176854133606, -0.12803523242473602, 0.002165481448173523, 0.08282822370529175, 0.11341062188148499, -0.04242496192455292, 0.08591371774673462, -0.1419805884361267, 0.15046179294586182, -0.024800971150398254, -0.15889984369277954, 0.11015421152114868, 0.07857909798622131, -0.049588918685913086, -0.11814849078655243, 0.07115405797958374, 0.0066346824169158936, 0.11106756329536438, -0.002671167254447937, -0.1450437605381012], [0.16351363062858582, -0.04973948001861572, 0.07478800415992737, -0.04749442636966705, 0.01757948100566864, -0.08537318557500839, 0.1144821047782898, 0.03106868267059326, -0.0011605024337768555, -0.13031388819217682, -0.17043866217136383, 0.16880640387535095, 0.04638610780239105, -0.1736324578523636, 0.023200154304504395, 0.13855081796646118, -0.0024527311325073242, -0.009663298726081848, 0.04678010940551758, -0.05027841031551361, 0.024821847677230835, -0.0321621298789978, 0.14621901512145996, -0.16308072209358215, 0.004505977034568787, 0.13611164689064026, 0.03229309618473053, -0.040324464440345764, 0.13139721751213074, 0.08071282505989075], [-0.1680861860513687, -0.003603061195462942, -0.010400836355984211, 0.028728589415550232, 0.006419584155082703, 0.07080817967653275, -0.11054421961307526, -0.12717445194721222, 0.01875970885157585, -0.02305377461016178, 0.02438800036907196, -0.08268026262521744, 0.08558850735425949, -0.02010088413953781, 0.1267167180776596, -0.1415484994649887, -0.06978131830692291, -0.10188434273004532, -0.07933396100997925, 0.09882713109254837, 0.044576141983270645, 0.05140767991542816, 0.11605031788349152, 0.18093273043632507, 0.1695249378681183, 0.16208244860172272, -0.08829040825366974, -0.06083078682422638, 0.14274448156356812, 0.07908641546964645], [-0.04344207048416138, -0.06279654055833817, -0.1890961229801178, -0.1963244378566742, 0.033571287989616394, -0.025544123724102974, -0.10557248443365097, -0.09982790797948837, -0.12175550311803818, 0.0683186799287796, -0.13458405435085297, 0.05863078683614731, -0.06772304326295853, 0.17281745374202728, -0.047142382711172104, -0.1783391386270523, 0.10376299172639847, 0.0825735479593277, -0.05024157464504242, -0.027360299602150917, 0.16067242622375488, -0.13842059671878815, -0.031111251562833786, -0.12063656747341156, -0.12823587656021118, -0.0870269313454628, -0.07182704657316208, -0.006236842833459377, 0.05501671880483627, 0.0315326452255249], [0.0064636170864105225, -0.05862890183925629, 0.14769020676612854, -0.14503389596939087, -0.03891611099243164, -0.029436513781547546, 0.18228387832641602, 0.09425929188728333, -0.038433194160461426, -0.041108593344688416, -0.12209869176149368, 0.14938390254974365, -0.06767154484987259, 0.15399962663650513, 0.08569589257240295, 0.14044985175132751, 0.1614876389503479, 0.11323228478431702, -0.04372665286064148, 0.17695119976997375, -0.17516010999679565, -0.14934523403644562, 0.09462630748748779, 0.00036653876304626465, 0.006763041019439697, 0.15369561314582825, 0.08420896530151367, -0.08521804958581924, 0.07811632752418518, 0.09300178289413452], [0.12426930665969849, -0.04133179783821106, -0.018172651529312134, -0.13071204721927643, 0.13272714614868164, -0.17025507986545563, 0.16113772988319397, 0.16084787249565125, -0.013631954789161682, -0.1509203016757965, 0.12731516361236572, 0.029596850275993347, -0.15899206697940826, -0.1660034954547882, 0.07144826650619507, 0.05240418016910553, 0.09880346059799194, 0.10098844766616821, 0.14596068859100342, -0.11473853141069412, 0.02718639373779297, -0.005626022815704346, -0.03298428654670715, -0.00424608588218689, -0.07538467645645142, 0.04593059420585632, -0.14881400763988495, -0.1486673206090927, 0.11554065346717834, -0.11871874332427979], [0.023180097341537476, -0.004189342260360718, -0.15062400698661804, -0.17923951148986816, -0.06783623993396759, 0.005476132035255432, 0.09690609574317932, -0.17234446108341217, 0.1821061074733734, -0.11393672972917557, 0.09935539960861206, -0.14823856949806213, 0.06604143977165222, -0.1379389613866806, 0.031062334775924683, 0.11348691582679749, -0.13106299936771393, -0.06464958190917969, 0.038358405232429504, -0.07397647202014923, -0.06749413907527924, -0.04924654960632324, 0.14213067293167114, 0.049629390239715576, -0.01318243145942688, -0.07546281069517136, -0.14224499464035034, 0.08332079648971558, 0.12880149483680725, -0.02078118920326233], [-0.0019446519436314702, 0.16293734312057495, 0.1562347412109375, 0.179192915558815, 0.004547592252492905, 0.05510415881872177, 0.023600688204169273, 0.07110671699047089, 0.0976020097732544, -0.09154238551855087, -0.07476155459880829, 0.11970046162605286, -0.16079190373420715, 0.12690861523151398, 0.07056770473718643, -0.041000187397003174, 0.005614409223198891, 0.006149569526314735, -0.16634368896484375, 0.0650205910205841, 0.09625843912363052, -0.17724348604679108, -0.053952932357788086, -0.049659691751003265, 0.030169880017638206, -0.05335737764835358, -0.11997169256210327, 0.13452588021755219, 0.16904598474502563, -0.12232071161270142]], "fc1.bias": [-0.09879036247730255, -0.1613895148038864, -0.011171969585120678, 0.14104999601840973, 0.09437957406044006, 0.1571376621723175, -0.008374636061489582, 0.14995989203453064, 0.00266362726688385, 0.13246026635169983, 0.07152023911476135, -0.07630467414855957, -0.17010349035263062, -0.16243287920951843, 0.11909007281064987, -0.13678213953971863, -0.09791596978902817, -0.14349517226219177, -0.021758124232292175, 0.04620799422264099, 0.16792812943458557, 0.15294203162193298, 0.03863930329680443, -0.03954151272773743, 0.06015670299530029, -0.05418011546134949, 0.1431141495704651, 0.02068745158612728, -0.15449346601963043, -0.1442912518978119, 0.14885884523391724, -0.0378442145884037], "fc2.weight": [[0.08905099332332611, 0.005814958363771439, 0.12310656905174255, 0.06114562600851059, 0.005738701671361923, 0.15279442071914673, -0.02655768021941185, -0.04065771400928497, -0.1598963886499405, -0.0575617291033268, -0.16653621196746826, -0.03120766580104828, 0.05166514590382576, -0.15559598803520203, -0.15149855613708496, 0.17089013755321503, 0.06788384914398193, 0.03473937511444092, -0.058128781616687775, 0.11578233540058136, 0.15526451170444489, 0.150361105799675, 0.07063448429107666, 0.10619927942752838, -0.10990646481513977, -0.1273609846830368, -0.05995732173323631, 0.09232224524021149, 0.010685011744499207, -0.0560670867562294, -0.11575998365879059, -0.09728915244340897], [0.22977691888809204, 0.19031313061714172, 0.04166477546095848, -0.022245407104492188, 0.20171301066875458, 0.0871092826128006, -0.04085300862789154, -0.11348932236433029, -0.11239561438560486, 0.007029592990875244, 0.1621408313512802, 0.22459959983825684, -0.04137766361236572, -0.09938246011734009, 0.14876756072044373, 0.021724089980125427, 0.3015599846839905, 0.1046900600194931, 0.01892876625061035, 0.054452940821647644, 0.052907735109329224, -0.13534505665302277, -0.034901514649391174, 0.16775445640087128, 0.0667162835597992, 0.1008579283952713, 0.23418202996253967, -0.12569940090179443, 0.15849612653255463, -0.10928542912006378, -0.13480313122272491, 0.13826146721839905], [-0.17664475739002228, 0.11921201646327972, -0.018397212028503418, -0.07444000989198685, -0.04307056590914726, 0.08087454736232758, -0.11557476222515106, -0.06756500154733658, 0.12356765568256378, -0.07887030392885208, -0.08215980231761932, -0.02153581753373146, -0.008213254623115063, 0.11339060962200165, 0.05312409624457359, 0.021397665143013, 0.11251334100961685, 0.15110816061496735, 0.0077294111251831055, -0.07370837032794952, 0.15655742585659027, 0.15584884583950043, 0.006780858151614666, -0.033710867166519165, 0.05524183809757233, 0.15084634721279144, -0.025820650160312653, -0.018629074096679688, -0.07281725853681564, -0.12054169178009033, 0.06839859485626221, -0.08593349903821945], [-0.08583804965019226, 0.09610229730606079, 0.10452507436275482, 0.02620905078947544, -0.23759283125400543, 0.0022405427880585194, 0.14575067162513733, 0.07935763895511627, -0.12504175305366516, 0.085878387093544, -0.1266707330942154, 0.025057945400476456, -0.08757372200489044, 0.0355609655380249, 0.040165744721889496, -0.1413755565881729, -0.03755859285593033, -0.07608538866043091, -0.1610923558473587, -0.15296490490436554, 0.10901008546352386, 0.04014483094215393, -0.12172351777553558, -0.13852979242801666, 0.08293960988521576, -0.08770925551652908, -0.037590667605400085, 0.1814703494310379, -0.10107728838920593, -0.031369686126708984, -0.04100780189037323, -0.14423015713691711], [-0.03817330300807953, -0.08791958540678024, -0.17619965970516205, 0.14045660197734833, -0.12587305903434753, -0.013143345713615417, -0.11847065389156342, 0.012322559952735901, -0.027091845870018005, -0.07515650987625122, 0.031675562262535095, -0.06817749887704849, -0.06222442537546158, -0.17030596733093262, -0.09971008449792862, 0.16895948350429535, -0.057260774075984955, 0.08437754213809967, -0.058497361838817596, 0.15985633432865143, -0.16006287932395935, -0.02239494025707245, 0.060717880725860596, 0.06965138018131256, 0.1261640340089798, 0.16452695429325104, 0.1062503308057785, -0.13999606668949127, -0.13086988031864166, 0.11990310251712799, -0.07267452776432037, 0.04108522832393646], [0.13419316709041595, 0.020564310252666473, 0.07141009718179703, -0.04930579662322998, 0.3365839719772339, 0.12932147085666656, 0.1758541762828827, 0.07718215882778168, 0.13599319756031036, -0.10176922380924225, 0.04716910421848297, 0.22291874885559082, 0.119890496134758, 0.07022227346897125, 0.049462854862213135, -0.15167754888534546, -0.009924091398715973, 0.16058097779750824, 0.11180885136127472, -0.05225404351949692, -0.1173887699842453, 0.1395048052072525, 0.0822797566652298, -0.06978420168161392, 0.07009223103523254, 0.036079034209251404, 0.041794292628765106, -0.031097572296857834, -0.00960300862789154, 0.13115109503269196, -0.032876819372177124, -0.10767745971679688], [-0.1709217131137848, -0.023145049810409546, 0.1415988951921463, 0.03661556541919708, 0.06465238332748413, 0.14562959969043732, -0.15996459126472473, 0.09535379707813263, 0.09603245556354523, -0.16846419870853424, -0.06351420283317566, -0.09569993615150452, -0.04646226763725281, -0.14159098267555237, -0.09464000910520554, -0.16864772140979767, -0.08892563730478287, -0.1589905172586441, -0.037384673953056335, -0.11681845784187317, -0.12363523244857788, -0.09064345806837082, 0.06582477688789368, 0.15881876647472382, 0.15289811789989471, 0.1567545384168625, 0.026160016655921936, 0.06334754824638367, 0.14531607925891876, -0.0033222734928131104, -0.16596581041812897, -0.13997989892959595], [0.13237525522708893, 0.15606580674648285, 0.13763363659381866, 0.061976924538612366, -0.06370915472507477, -0.019827693700790405, -0.04507535696029663, -0.004117056727409363, -0.12378855794668198, 0.11636792123317719, -0.08181837201118469, 0.1649973839521408, 0.07604058086872101, 0.040253639221191406, -0.11101431399583817, 0.15032528340816498, -0.09089379012584686, -0.06624706834554672, -0.141875222325325, 0.023395881056785583, -0.1121511161327362, -0.10555526614189148, -0.09814909100532532, 0.02644658088684082, 0.13278697431087494, -0.1641170084476471, -0.05870760977268219, -0.11758380383253098, 0.15870757400989532, 0.1600625067949295, -0.12324242293834686, -0.14571061730384827], [0.05933326482772827, 0.11460484564304352, 0.03375132381916046, -0.10634827613830566, -0.16274766623973846, 0.08122332394123077, 0.05015556514263153, 0.13604773581027985, 0.09056492149829865, -0.14731505513191223, 0.08639071881771088, 0.0069197118282318115, 0.025391235947608948, 0.16688229143619537, 0.1415921002626419, -0.061597153544425964, -0.16917040944099426, 0.17410780489444733, 0.1568162888288498, -0.1622271090745926, 0.09200124442577362, 0.13416321575641632, -0.14541012048721313, 0.033041417598724365, 0.14901454746723175, 0.03418518602848053, -0.1579689085483551, 0.051679596304893494, -0.045887112617492676, 0.054184794425964355, -0.138007253408432, 0.03875507414340973], [-0.17580680549144745, -0.08591790497303009, 0.17641375958919525, 0.05845293402671814, -0.1024182066321373, 0.028242096304893494, 0.17279861867427826, 0.15016676485538483, 0.00667901337146759, -0.04676508903503418, 0.017732471227645874, 0.05315014719963074, 0.05270490050315857, -0.17379292845726013, -0.046108946204185486, 0.004744112491607666, -0.035081058740615845, -0.09846683591604233, -0.09727024286985397, -0.16276393830776215, 0.08560533821582794, -0.1657440960407257, 0.04347814619541168, 0.13284076750278473, 0.17301015555858612, 0.0045927464962005615, -0.059865131974220276, -0.13712474703788757, -0.17035657167434692, 0.07055854797363281, -0.028667554259300232, 0.13899840414524078], [0.03131049498915672, 0.006976831704378128, -0.077332504093647, 0.16509926319122314, 0.09504973143339157, -0.16906100511550903, -0.13090956211090088, -0.01943764090538025, 0.060401707887649536, -0.06408089399337769, -0.05241263657808304, -0.037807926535606384, -0.03986363857984543, -0.08258141577243805, -0.029970280826091766, 0.0045042484998703, 0.020487137138843536, -0.03711406886577606, -0.04322393238544464, -0.03234344720840454, -0.08915933966636658, 0.11004631221294403, -0.012301832437515259, 0.005021452903747559, 0.000690266489982605, -0.008958548307418823, 0.05148306488990784, -0.0319167859852314, -0.03642164170742035, 0.013067737221717834, 0.11797483265399933, 0.009836442768573761], [-0.11814770847558975, 0.07228268682956696, 0.16074524819850922, 0.12065131962299347, -0.09824413061141968, -0.09358987957239151, -0.05903690308332443, -0.013115569949150085, -0.1110496073961258, 0.005827561020851135, -0.015115022659301758, -0.15273164212703705, 0.017150431871414185, 0.10472415387630463, 0.05765680968761444, 0.0908094197511673, -0.07840342074632645, -0.0428415983915329, 0.1219102293252945, 0.17496351897716522, -0.07248545438051224, -0.057172976434230804, 0.08388416469097137, 0.034711286425590515, -0.15449729561805725, 0.012213081121444702, 0.14875756204128265, -0.06896509975194931, 0.023846954107284546, 0.1083175390958786, -0.14146503806114197, 0.09155566990375519], [-0.0361427366733551, 0.13392792642116547, -0.039245352149009705, -0.13707774877548218, -0.002028912305831909, -0.11449635773897171, 0.08090890944004059, -0.001363128423690796, 0.020462825894355774, -0.048163220286369324, -0.01622508466243744, -0.16778960824012756, 0.00227414071559906, -0.16908051073551178, -0.0633256584405899, -0.15624114871025085, -0.070044606924057, -0.14501464366912842, 0.15811766684055328, -0.10674606263637543, 0.053125426173210144, 0.05628684163093567, -0.11434844136238098, -0.03306439518928528, 0.12906499207019806, 0.12571589648723602, 0.03521503508090973, -0.09814959764480591, 0.1379215270280838, 0.17377246916294098, 0.06469056010246277, 0.08332382142543793], [-0.0216970294713974, -0.025779858231544495, 0.15625141561031342, 0.1098063737154007, -0.07331717759370804, 0.15500368177890778, -0.08984930068254471, -0.08989834040403366, -0.05883278697729111, 0.010430529713630676, 0.11007435619831085, -0.006787419319152832, 0.13794086873531342, -0.027223855257034302, -0.10525205731391907, 0.011510521173477173, -0.12081429362297058, -0.08408153057098389, -0.0003081709146499634, 0.10623298585414886, 0.07494993507862091, -0.06557680666446686, 0.0682959109544754, 0.16347484290599823, 0.1134878545999527, 0.08716337382793427, 0.03572957217693329, -0.06404784321784973, 0.14069141447544098, -0.04818186163902283, 0.15747801959514618, -0.017344564199447632], [-0.14556249976158142, -0.1569194793701172, -0.12227573990821838, -0.17012116312980652, 0.1227765828371048, 0.030600935220718384, -0.08167538791894913, 0.16208548843860626, 0.16958431899547577, -0.03490950167179108, 0.13005085289478302, -0.07186252623796463, -0.10998013615608215, -0.032519370317459106, 0.0757877379655838, 0.013665497303009033, -0.13648481667041779, 0.09383074939250946, 0.06209002435207367, 0.1766977459192276, 0.1331460326910019, -0.12926331162452698, 0.004579290747642517, 0.08108989894390106, -0.019046202301979065, 0.020599424839019775, -0.08604462444782257, -0.06278074532747269, -0.02760995924472809, 0.08360539376735687, 0.17162205278873444, -0.044310033321380615], [-0.012399449944496155, -0.05756650120019913, -0.01789301633834839, -0.04828225076198578, -0.04609718918800354, 0.08432792127132416, -0.1093197762966156, 0.14956767857074738, 0.04389919340610504, 0.1313065141439438, -0.003693997859954834, -0.0727885514497757, -0.02728874981403351, 0.09644798934459686, -0.06249530613422394, -0.06103472411632538, -0.012223750352859497, -0.14679312705993652, 0.0565563440322876, -0.050488799810409546, 0.03424566984176636, -0.02869953215122223, 0.008133307099342346, -0.13483351469039917, -0.08736249059438705, 0.012867555022239685, -0.04177892208099365, -0.020257309079170227, 0.1255136877298355, -0.07093565165996552, 0.15331272780895233, -0.01925000548362732]], "fc2.bias": [-0.15486522018909454, -0.028521189466118813, -0.1513303965330124, -0.15220989286899567, -0.0052225589752197266, -0.17280156910419464, 0.11276789009571075, 0.16997657716274261, 0.17000742256641388, -0.03825491666793823, -0.11152178049087524, -0.12112051248550415, 0.009235158562660217, -0.014514327049255371, -0.021381109952926636, -0.007225126028060913], "fc3.weight": [[0.1733875870704651, -0.2537834048271179, 0.03419683873653412, 0.011223942041397095, -0.14194819331169128, -0.20461830496788025, -0.1465534269809723, -0.22892138361930847, 0.2029239535331726, -0.06310415267944336, -0.3547680974006653, 0.154430091381073, -0.24783039093017578, 0.04161590337753296, -0.15650001168251038, 0.058170318603515625]], "fc3.bias": [0.0909581184387207]}