{"fc1.weight": [[-0.16471371054649353, -0.10735385864973068, 0.08178404718637466, 0.06911951303482056, 0.16488048434257507, -0.012165171094238758, 0.015151815488934517, 0.06156773492693901, 0.14214842021465302, -0.1003769263625145, 0.18125712871551514, -0.06312204152345657, 0.14486554265022278, -0.12017054110765457, 0.17555513978004456, 0.08961369842290878, 0.11476808786392212, 0.10716862231492996, 0.10169057548046112, 0.09471655637025833, 0.16100411117076874, 0.1492374688386917, -0.13868027925491333, -0.06427527219057083, 0.04354194551706314, -0.10407063364982605, -0.07033294439315796, -0.16349676251411438, 0.005639350041747093, -0.14584743976593018], [-0.08654695004224777, 0.17644158005714417, -0.08761265128850937, 0.15920841693878174, -0.13210944831371307, 0.03718651831150055, -0.01944027841091156, 0.14548835158348083, 0.09891366958618164, 0.08404615521430969, 0.16562196612358093, -0.0213392972946167, 0.09939095377922058, -0.05600738525390625, -0.13517643511295319, -0.07745126634836197, -0.1045864000916481, 0.11870506405830383, -0.17437951266765594, -0.15018421411514282, 0.18254354596138, -0.09823664277791977, 0.0022880882024765015, -0.15901532769203186, -0.15690447390079498, 0.051263585686683655, 0.07876184582710266, 0.09973934292793274, 0.006831735372543335, -0.11090383678674698], [-0.07196120172739029, -0.11192135512828827, -0.09147994965314865, -0.013309106230735779, 0.04222327470779419, 0.06654925644397736, 0.06626081466674805, -0.1765730082988739, 0.07332989573478699, -0.13500995934009552, -0.08695995062589645, 0.16181707382202148, -0.11850930750370026, -0.036040231585502625, 0.09708011150360107, 0.14428788423538208, -0.08885984122753143, 0.16468197107315063, 0.04895979166030884, -0.11466527730226517, -0.027189284563064575, -0.16887663304805756, 0.06205363571643829, -0.10979890078306198, -0.16162122786045074, 0.039587512612342834, 0.06614913046360016, -0.020378440618515015, -0.08456151932477951, 0.05375249683856964], [0.13878196477890015, 0.03741078823804855, 0.06703308969736099, 0.17672081291675568, 0.09124700725078583, -0.031252555549144745, 0.07660101354122162, 0.00035174295771867037, -0.14584867656230927, 0.16925159096717834, 0.0027900398708879948, 0.1558041274547577, -0.06711195409297943, 0.012103736400604248, 0.05036519095301628, 0.07968517392873764, -0.15947014093399048, 0.03661585971713066, -0.08224613219499588, 0.07252084463834763, -0.015741227194666862, 0.05210672318935394, -0.07473774999380112, -0.037910640239715576, -0.05202402547001839, -0.14421245455741882, -0.007282861974090338, -0.16679047048091888, 5.6031309213722125e-05, 0.09818808734416962], [-0.07583986967802048, -0.12055908888578415, 0.16906113922595978, 0.15801729261875153, 0.08385375142097473, 0.13865536451339722, 0.1780659258365631, -0.0974096730351448, -0.04477270692586899, 0.17449940741062164, -0.09224636852741241, 0.17580901086330414, -0.07219938188791275, 0.0030459812842309475, 0.08912781625986099, -0.13618376851081848, 0.024064451456069946, 0.07100413739681244, -0.06303726881742477, -0.12685449421405792, -0.0213302131742239, 0.12431375682353973, -0.06867615133523941, -0.0648953914642334, 0.13745778799057007, -0.15118399262428284, -0.004890060517936945, 0.025594767183065414, -0.03875302895903587, 0.00032072438625618815], [0.013406679034233093, -0.15108995139598846, -0.12860578298568726, -0.14835208654403687, -0.16320443153381348, 0.1324642300605774, 0.05511412024497986, -0.06573140621185303, -0.04278424382209778, -0.08303426206111908, 0.09183770418167114, -0.11712963134050369, -0.07086128741502762, 0.023203611373901367, -0.1792176514863968, -0.07960088551044464, -0.031205251812934875, 0.16806480288505554, 0.057053953409194946, 0.17381951212882996, -0.15165022015571594, -0.11122911423444748, -0.07283929735422134, 0.11330264806747437, 0.1759262979030609, 0.12810483574867249, -0.03227275609970093, 0.14646363258361816, 0.04048970341682434, 0.15065282583236694], [0.12214760482311249, -0.12815840542316437, 0.09207858145236969, -0.12959907948970795, -0.0568850040435791, 0.13465113937854767, 0.029147867113351822, 0.13742779195308685, -0.03533046692609787, -0.021838238462805748, 0.09137827157974243, 0.07286706566810608, -0.09550478309392929, -0.055303700268268585, 0.13091644644737244, 0.05797088146209717, -0.16500882804393768, -0.1671709567308426, 0.12847892940044403, 0.04350127652287483, 0.15160469710826874, 0.05009935423731804, -0.11714154481887817, 0.06120537966489792, -0.15499646961688995, 0.04261781647801399, -0.013268901966512203, -0.1580086499452591, -0.05975103750824928, -0.09165293723344803], [-0.09212940186262131, 0.011346399784088135, 0.07408797740936279, -0.04072245955467224, -0.15165084600448608, -0.15990765392780304, -0.134527325630188, -0.035531505942344666, -0.1129138395190239, 0.11026585102081299, -0.18067200481891632, 0.15797817707061768, -0.1147145926952362, -0.031011179089546204, -0.04683771729469299, 0.08192923665046692, -0.11161662638187408, -0.04258468747138977, 0.006438210606575012, 0.043917134404182434, -0.16630063951015472, 0.06357207894325256, -0.15030129253864288, 0.04044695198535919, 0.05224853754043579, 0.11567479372024536, 0.11402115225791931, 0.0036588162183761597, 0.16558736562728882, -0.08351736515760422], [-0.1302637755870819, -0.12870372831821442, 0.056925393640995026, -0.1302730292081833, -0.15682125091552734, 0.07463561743497849, 0.06460727006196976, -0.15934191644191742, 0.096581369638443, -0.07139798998832703, 0.12930187582969666, -0.14392825961112976, 0.031776051968336105, -0.025474928319454193, 0.08308911323547363, -0.16727453470230103, -0.0007671460043638945, -0.009946277365088463, -0.09535129368305206, 0.1510968655347824, 0.10737244784832001, 0.12923231720924377, -0.1494445651769638, 0.10309077054262161, 0.020590342581272125, -0.17318324744701385, -0.086266428232193, 0.008325624279677868, 0.0978349894285202, 0.05846009775996208], [-0.030039459466934204, 0.026131048798561096, -0.13692426681518555, 0.02877768874168396, 0.09989476203918457, 0.15046155452728271, 0.07418984174728394, -0.16210204362869263, 0.13813886046409607, -0.03516833484172821, 0.05325794219970703, 0.06598515808582306, -0.060173094272613525, 0.14190837740898132, -0.006990566849708557, -0.000662684440612793, -0.001143619418144226, -0.035512059926986694, -0.08814000338315964, -0.11112520843744278, 0.0762515664100647, 0.13861972093582153, 0.16782265901565552, -0.16651087999343872, -0.18129660189151764, 0.14458492398262024, -0.0501767098903656, -0.09477919340133667, 0.1789461374282837, -0.029614031314849854], [0.10346952080726624, -0.15577398240566254, -0.021848246455192566, -0.11697062104940414, 0.17099961638450623, 0.036676228046417236, -0.16596172749996185, -0.08076143264770508, 0.09861952066421509, 0.02504993975162506, -0.05512768030166626, -0.09979920089244843, 0.07678103446960449, 0.17831853032112122, -0.005454689264297485, -0.1533060073852539, 0.1194048523902893, 0.126313716173172, -0.12472134083509445, -0.11057785153388977, -0.028928667306900024, 0.01531289517879486, 0.02547334134578705, -0.17357318103313446, -0.04434873163700104, -0.12241744995117188, 0.005871251225471497, 0.06643392145633698, -0.06548131257295609, -0.09744173288345337], [-0.04390667378902435, -0.055955249816179276, 0.03122759237885475, 0.26636409759521484, 0.056229352951049805, 0.0722433477640152, -0.03103499487042427, -0.06942712515592575, -0.04266957566142082, 0.097893126308918, -0.08016441017389297, -0.10948394238948822, -0.12868385016918182, 0.09805961698293686, -0.055146750062704086, -0.14636828005313873, -0.003211284289136529, 0.07376027852296829, 0.14899861812591553, -0.14307260513305664, -0.07605906575918198, 0.02491994947195053, 0.13931605219841003, -0.0131283700466156, 0.08025567978620529, -0.005035266280174255, 0.054899029433727264, -0.06545144319534302, -0.16522279381752014, -0.08459088206291199], [-0.17745646834373474, 0.06352442502975464, -0.0803629457950592, -0.11921799927949905, 0.12642988562583923, 0.1737256646156311, 0.025675341486930847, 0.173610121011734, 0.07145810127258301, 0.06955623626708984, 0.060511767864227295, -0.05018787086009979, -0.09349856525659561, 0.14754027128219604, 0.04939766228199005, -0.05414864420890808, -0.062790147960186, -0.04762353003025055, 0.055288225412368774, 0.00949472188949585, 0.016481801867485046, 0.16174983978271484, -0.13338354229927063, 0.04019339382648468, 0.0942651629447937, -0.05640280246734619, -0.08308310061693192, -0.08622067421674728, 0.036358579993247986, -0.17842784523963928], [-0.1321028470993042, 0.1231464073061943, -0.1267411857843399, -0.0871303454041481, 0.008003050461411476, -0.1415015161037445, 0.021262474358081818, -0.1057816818356514, -0.07704062759876251, -0.10649383068084717, 0.09134814888238907, 0.11359331756830215, -0.16443020105361938, -0.12694400548934937, -0.14496156573295593, 0.040599409490823746, -0.04940300062298775, 0.019198615103960037, 0.0942687839269638, 0.042636241763830185, -0.07582404464483261, 0.10173708200454712, -0.027738390490412712, 0.1555042713880539, -0.019343223422765732, -0.16401095688343048, 0.178745836019516, -0.06297579407691956, -0.0022656044457107782, -0.06547435373067856], [0.06431002914905548, -0.052341148257255554, -0.11815252155065536, -0.0765439048409462, -0.06764529645442963, -0.14625221490859985, 0.03821299970149994, 0.08334001898765564, -0.08065252751111984, 0.024686843156814575, -0.12151642143726349, 0.07751944661140442, -0.1767580509185791, 0.1600494384765625, -0.15207476913928986, -0.17593835294246674, -0.12766864895820618, -0.1194765642285347, 0.05917416512966156, -0.02529466152191162, 0.035520702600479126, 0.13232117891311646, 0.033630043268203735, -0.1385902315378189, -0.15019327402114868, -0.10825226455926895, -0.1675538420677185, 0.1514897346496582, -0.14903244376182556, -0.0216941237449646], [0.06759844720363617, -0.06102364882826805, -0.03182943910360336, -0.010342128574848175, 0.053964607417583466, 0.16282476484775543, -0.026311375200748444, 0.10088712722063065, -0.026711342856287956, 0.1123487651348114, -0.171706885099411, 0.1794864535331726, 0.04787101969122887, -0.12823939323425293, -0.16294458508491516, 0.029329193755984306, -0.04278145357966423, 0.09323237836360931, -0.08740389347076416, -0.12627443671226501, -0.10619152337312698, -0.04102255403995514, 0.012545032426714897, 0.2080424278974533, 0.0024713666643947363, -0.1244509220123291, -0.15973499417304993, -0.0671260878443718, -0.11825110763311386, 0.07053911685943604]], "fc1.bias": [-0.0037394901737570763, -0.17268356680870056, 0.17820098996162415, 0.07229264080524445, 0.14863663911819458, -0.039736971259117126, -0.14014932513237, -0.04365086555480957, 0.06638812273740768, -0.021505609154701233, 0.05278189480304718, -0.07238034158945084, 0.10909703373908997, 0.08061929047107697, 0.03380340337753296, 0.04949549213051796], "fc2.weight": [[0.16045796871185303, -0.015215158462524414, 0.06348714232444763, -0.14613370597362518, -0.017893366515636444, -0.026169002056121826, 0.1610216200351715, -0.1050279438495636, 0.04668062925338745, 0.1316070854663849, -0.06059768795967102, -0.2572435140609741, 0.11765670776367188, -0.019754132255911827, 0.00508725643157959, -0.20638886094093323]], "fc2.bias": [-0.14390701055526733]}