{"fc1.weight": [[0.05921733379364014, -0.015698403120040894, 0.16867956519126892, 0.33961406350135803, 0.06540029495954514, -0.14672935009002686, -0.11548300832509995, -0.12595030665397644, -0.12015462666749954, 0.002846799325197935, -0.1763041615486145, 0.1465824544429779, -0.15132395923137665, 0.1692599207162857, -0.03005898930132389, -0.06633535027503967, 0.1714044213294983, 0.08786925673484802, 0.13078156113624573, -0.1694718599319458, 0.1426537185907364, -0.0608653649687767, 0.16346675157546997, 0.27585309743881226, 0.156769797205925, -0.06174187362194061, 0.08176344633102417, 0.047412849962711334, -0.015956442803144455, -0.11283193528652191], [-0.010024115443229675, -0.022600099444389343, -0.10795796662569046, 0.11742696166038513, -0.13065490126609802, -0.1110718622803688, 0.1246626079082489, -0.06978953629732132, -0.13225939869880676, 0.11160984635353088, -0.17826275527477264, -0.13191962242126465, 0.09957623481750488, 0.12245643138885498, -0.017219215631484985, 0.12036100029945374, 0.11277610063552856, -0.1818375438451767, -0.08333900570869446, -0.010215774178504944, 0.16879290342330933, -0.10950198769569397, -0.07894361764192581, -0.13638252019882202, 0.0008595883846282959, -0.16615575551986694, 0.05854600667953491, -0.1351083368062973, 0.019125327467918396, -0.1539926826953888], [0.17052346467971802, 0.068788081407547, 0.057580068707466125, 0.1604110598564148, 0.17948809266090393, -0.004060372710227966, 0.10574263334274292, 0.1777144968509674, -0.039387673139572144, 0.08699023723602295, 0.027711108326911926, 0.09701278805732727, -0.1329306811094284, -0.07175467908382416, -0.18189774453639984, 0.03151065111160278, 0.07624664902687073, 0.08863583207130432, -0.16331951320171356, -0.08965107053518295, -0.158657506108284, -0.03801669180393219, -0.10755138099193573, -0.1381726711988449, -0.06509638577699661, 0.12230384349822998, -0.12214504927396774, -0.01330035924911499, -0.06491460651159286, 0.17942270636558533], [-0.05793837457895279, 0.16931644082069397, -0.1364639699459076, -0.06205672770738602, -0.1750127673149109, 0.11038452386856079, 0.06534510850906372, -0.1474681794643402, -0.1616239845752716, 0.15501949191093445, 0.07335233688354492, 0.06352108716964722, 0.1464555859565735, 0.08872178196907043, 0.0335472971200943, 0.17959901690483093, 0.16232174634933472, -0.09214228391647339, 0.07751795649528503, -0.04295593500137329, 0.060148000717163086, 0.029387682676315308, -0.004923507571220398, 0.04099936783313751, 0.014351695775985718, 0.09419986605644226, -0.0706963762640953, 0.12307119369506836, 0.01048952341079712, 0.05226455628871918], [0.05721616744995117, 0.013377964496612549, -0.12160045653581619, -0.13042403757572174, -0.021565094590187073, -0.0719323679804802, -0.17094044387340546, 0.16573849320411682, 0.11417087912559509, 0.08671072125434875, -0.02284984290599823, 0.17724376916885376, -0.06600932031869888, 0.11267653107643127, -0.15664434432983398, 0.08977305889129639, -0.007016956806182861, -0.12406052649021149, 0.02948404848575592, -0.18023855984210968, 0.11220473051071167, 0.06274953484535217, 0.05182519555091858, 0.02056773006916046, 0.10773620009422302, 0.0007460862398147583, -0.06948729604482651, 0.11890128254890442, -0.056735605001449585, -0.15634939074516296], [0.14812874794006348, 0.014773860573768616, 0.04069019854068756, -0.08054652810096741, 0.05318097770214081, 0.01481880247592926, 0.07340896129608154, 0.12910917401313782, -0.017826005816459656, -0.1723295897245407, -0.09737208485603333, -0.03137160837650299, -0.04654151201248169, 0.1762409508228302, 0.16506549715995789, 0.15386658906936646, 0.10803565382957458, -0.0960250124335289, 0.12556779384613037, 0.018740907311439514, -0.1350720077753067, -0.15887989103794098, 0.15860819816589355, -0.15658418834209442, 0.0796252191066742, -0.07956353574991226, -0.17018082737922668, 0.0049306899309158325, 0.0391312837600708, 0.04627044498920441], [0.12270891666412354, 0.18168586492538452, 0.09650665521621704, -0.04201006889343262, -0.12450197339057922, 0.14932215213775635, 0.16212427616119385, -0.03762704133987427, 0.17811527848243713, -0.08311781287193298, -0.1794849932193756, -0.07751569151878357, 0.12148481607437134, -0.003928869962692261, 0.12480077147483826, 0.016309037804603577, 0.008691385388374329, 0.16672900319099426, -0.0824456587433815, -0.012375012040138245, 0.07542473077774048, 0.1367948353290558, 0.13933196663856506, -0.12121725082397461, -0.0012436658143997192, -0.10215774178504944, -0.17360013723373413, -0.06804071366786957, 0.17803043127059937, -0.04675547778606415], [-0.1526002138853073, 0.12294390797615051, 0.11309126019477844, -0.050470203161239624, -0.14696593582630157, -0.07751984894275665, 0.10008502006530762, -0.045280396938323975, 0.10246872901916504, 0.08481219410896301, 0.10434731841087341, -0.06551426649093628, 0.08756783604621887, -0.11584073305130005, -0.039345428347587585, 0.1122177243232727, 0.11697119474411011, -0.000791594386100769, -0.12014280259609222, -0.08640684932470322, -0.011277899146080017, 0.14397603273391724, -0.14661261439323425, 0.0032961368560791016, -0.07116294652223587, 0.05196741223335266, 0.08269950747489929, -0.1711491495370865, -0.08804650604724884, 0.048249199986457825], [0.04677566885948181, -0.06583108752965927, -0.17491154372692108, -0.0256318598985672, -0.039341121912002563, 0.043294936418533325, -0.14108538627624512, -0.011854365468025208, 0.0761549174785614, -0.1676347851753235, 0.10086819529533386, -0.05099107325077057, -0.025945588946342468, -0.17856758832931519, 0.09675735235214233, 0.14414453506469727, 0.07208967208862305, -0.022898033261299133, -0.16528072953224182, 0.15492349863052368, -0.029174625873565674, 0.15469148755073547, -0.03690341114997864, -0.13693347573280334, 0.08983755111694336, 0.17207369208335876, 0.07593998312950134, -0.17279426753520966, 0.04799763858318329, -0.007792189717292786], [-0.13064490258693695, -0.01255214586853981, 0.18415877223014832, 0.25240617990493774, 0.15305112302303314, -0.05921480059623718, -0.11831216514110565, -0.04443829879164696, -0.1349542737007141, 0.06618820130825043, 0.18183456361293793, 0.04468825086951256, 0.07045131921768188, -0.02571052499115467, 0.15529489517211914, 0.04161085933446884, 0.06884551793336868, -0.1505640596151352, -0.046659234911203384, -0.0917845070362091, 0.02839241549372673, 0.17659124732017517, -0.11239157617092133, 0.3605561852455139, -0.04574571177363396, 0.061327382922172546, -0.058998458087444305, -0.05757465586066246, -0.08442303538322449, -0.14696726202964783], [-0.12596271932125092, 0.14332333207130432, 0.0967690721154213, -0.18132814764976501, -0.06576558202505112, 0.06922082602977753, 0.03688875213265419, 0.0901879295706749, -0.09496916830539703, 0.0452890619635582, 0.11293332278728485, 0.029480718076229095, 0.07291588187217712, 0.12093125283718109, 0.014787488617002964, 0.16720454394817352, 0.15615993738174438, 0.03951162099838257, 0.01987113058567047, 0.1417655050754547, 0.07852745056152344, 0.06040402874350548, -0.12681864202022552, -0.26937758922576904, -0.05017164722084999, 0.04440049082040787, -0.1188056543469429, 0.04914756491780281, -0.15903638303279877, 0.08247291296720505], [0.11191493272781372, -0.04178747907280922, -0.05662788450717926, -0.0521540492773056, 0.15580278635025024, 0.09975901991128922, -0.02648618444800377, -0.02367466315627098, -0.1314145028591156, -0.07273305952548981, -0.12663328647613525, 0.03727501630783081, -0.12628529965877533, 0.1709413081407547, -0.02329367585480213, 0.044496212154626846, 0.14886583387851715, -0.1033005490899086, 0.13575416803359985, -0.029213443398475647, 0.13368791341781616, -0.027084140107035637, -0.13351432979106903, -0.04455848038196564, 0.0891246572136879, 0.12816651165485382, 0.05682763829827309, 0.14379911124706268, 0.09945344179868698, 0.1282321959733963], [-0.15845994651317596, 0.022716879844665527, 0.04563131183385849, -0.001820586621761322, -0.1415882557630539, 0.08234408497810364, -0.15505100786685944, -0.10566624999046326, -0.1296353042125702, -0.10947543382644653, 0.016219183802604675, -0.11441127955913544, 0.0701855793595314, -0.04404883831739426, 0.04932104051113129, -0.10032510757446289, -0.1668897122144699, 0.09930753707885742, -0.0433468334376812, 0.13439908623695374, 0.15278667211532593, -0.03110901080071926, -0.06350599229335785, 0.04857482761144638, 0.12550625205039978, 0.09291175752878189, 0.14035829901695251, -0.00866563618183136, -0.04869021102786064, -0.09293334931135178], [0.06117594614624977, 0.024227723479270935, -0.04945679381489754, 0.04356084391474724, 0.12672659754753113, 0.07523804157972336, -0.1269395500421524, -0.05829458683729172, -0.03605518862605095, 0.1679292470216751, 0.08651196956634521, -0.1277247965335846, 0.032178524881601334, -0.1462670862674713, 0.159151092171669, 0.15049058198928833, -0.13138367235660553, 0.08303225785493851, -0.09808309376239777, 0.0705627053976059, 0.0058732833713293076, 0.03784441202878952, 0.07523243129253387, -0.03912933170795441, -0.17968757450580597, -0.14417091012001038, 0.1070551797747612, 0.00818534754216671, 0.02974768914282322, -0.13806384801864624], [0.12244829535484314, 0.08291271328926086, 0.08322495222091675, -0.1708255112171173, 0.11549821496009827, 0.12476798892021179, -0.012281075119972229, -0.076261006295681, -0.13907316327095032, -0.1431456059217453, -0.13097013533115387, -0.14210665225982666, -0.08186011016368866, 0.12590962648391724, -0.12363724410533905, 0.10360109806060791, 0.1418098509311676, -0.010590344667434692, 0.09570422768592834, -0.03636340796947479, 0.1385158896446228, -0.08836629241704941, 0.09774640202522278, -0.046905264258384705, -0.18137744069099426, -0.12796175479888916, 0.07372269034385681, 0.0009266436100006104, 0.0844336450099945, -0.02794577181339264], [-0.030008167028427124, -0.020091280341148376, -0.1810430884361267, -0.05849432945251465, 0.0892798900604248, 0.06282688677310944, 0.08559674024581909, 0.024317607283592224, -0.11352777481079102, -0.06170825660228729, 0.08546960353851318, 0.09488862752914429, -0.1062832698225975, 0.1644345223903656, -0.08977432548999786, -0.15046072006225586, 0.05735158920288086, -0.08405802398920059, -0.014682114124298096, 0.10689625144004822, -0.17316073179244995, -0.09281271696090698, -0.09624487906694412, -0.10353872179985046, 0.1806691586971283, -0.17627939581871033, -0.17286355793476105, 0.12561693787574768, -0.08178271353244781, -0.04513271152973175], [-0.07124832272529602, -0.14092634618282318, 0.07552168518304825, 0.014990929514169693, 0.16793060302734375, -0.15180055797100067, -0.14920160174369812, 0.17868448793888092, -0.04041726142168045, 0.01081438735127449, -0.09955836087465286, 0.01936587691307068, 0.01889941841363907, 0.06539550423622131, -0.1308361291885376, -0.03383246436715126, -0.13053639233112335, -0.08137690275907516, -0.02386164665222168, -0.07713285088539124, 0.04066914692521095, -0.025035357102751732, -0.03883903846144676, -0.04733649268746376, -0.06862093508243561, 0.14834898710250854, 0.0494149886071682, 0.02502627857029438, 0.0268496572971344, 0.1239205002784729], [-0.07942184060811996, -0.1507013440132141, -0.04847026616334915, 0.2616901695728302, -0.05448611080646515, 0.14227154850959778, -0.0310380756855011, 0.028781753033399582, -0.04256463795900345, -0.17238232493400574, 0.11229930073022842, -0.15685032308101654, 0.1288911998271942, 0.030687175691127777, 0.09335319697856903, 0.03588788956403732, -0.001397168030962348, -0.0039398083463311195, -0.05789856240153313, -0.03798305615782738, -0.04549947381019592, -0.07338596135377884, -0.14070086181163788, 0.09786443412303925, 0.11671330779790878, 0.05174794793128967, -0.09616845846176147, -0.17506511509418488, -0.07143048942089081, 0.0857895240187645], [-0.03896496444940567, -0.15299327671527863, -0.05041927099227905, -0.05668561905622482, 0.017546411603689194, -0.1486804485321045, 0.010424299165606499, -0.0965273305773735, -0.15529663860797882, -0.1105230376124382, -0.11264163255691528, -0.12928476929664612, -0.005529635585844517, -0.10860157757997513, -0.16618981957435608, 0.11306939274072647, -0.17150624096393585, 0.0531105101108551, -0.14894869923591614, 0.08647075295448303, 0.039739470928907394, -0.08637463301420212, -0.08125562220811844, 0.2455032765865326, 0.15578630566596985, 0.03750527277588844, -0.05246831476688385, -0.033107940107584, -0.08487996459007263, -0.11007021367549896], [0.04216442257165909, -0.17277748882770538, 0.13742583990097046, 0.14973405003547668, -0.05785596743226051, 0.060409050434827805, 0.011504625901579857, -0.17020194232463837, -0.08821909874677658, 0.06986841559410095, -0.03036789409816265, -0.13459394872188568, -0.050987884402275085, 0.184713676571846, -0.011148350313305855, 0.10262636840343475, -0.01526032853871584, 0.09576214104890823, -0.11913798749446869, -0.09926186501979828, -0.05773887783288956, 0.139536514878273, -0.16156882047653198, 0.19814136624336243, 0.05802617594599724, -0.10463014245033264, 0.14087146520614624, 0.026922360062599182, 0.10897065699100494, 0.18179786205291748], [-0.08380607515573502, -0.12855692207813263, -0.04050128161907196, -0.1352403461933136, -0.09689456969499588, -0.17648012936115265, -0.15000474452972412, -0.17100787162780762, 0.13393443822860718, -0.035891830921173096, -0.15159069001674652, -0.061406686902046204, 0.002696514129638672, -0.06878828257322311, -0.049972906708717346, -0.11165247857570648, -0.14598220586776733, -0.044442206621170044, 0.09366509318351746, 0.041807979345321655, -0.1167897954583168, 0.13795381784439087, 0.07462242245674133, -0.16033315658569336, 0.06309768557548523, 0.08176982402801514, -0.07688645273447037, -0.020649105310440063, 0.030184894800186157, 0.03185869753360748], [0.16724412143230438, -0.1228456050157547, -0.16939686238765717, 0.056294433772563934, 0.058635860681533813, 0.015877332538366318, -0.00271597714163363, 0.16122575104236603, -0.047712650150060654, -0.07078368961811066, 0.006393576506525278, -0.11706068366765976, -0.14544062316417694, -0.12967351078987122, 0.1301499903202057, -0.083719901740551, 0.11372070759534836, 0.1767248958349228, 0.06308866292238235, -0.08476249873638153, -0.14682945609092712, -0.14162321388721466, -0.05243668332695961, -0.004387803375720978, -0.09096590429544449, -0.06701204180717468, 0.004946809262037277, -0.07171650230884552, -0.03423935920000076, 0.14849503338336945], [-0.13491198420524597, 0.179001122713089, 0.10969364643096924, -0.156911239027977, -0.14555011689662933, 0.0022527873516082764, -0.11910656839609146, 0.11340901255607605, -0.0032550394535064697, 0.09669846296310425, 0.04273195564746857, -0.15712711215019226, 0.03132496774196625, 0.11918878555297852, 0.02686372399330139, 0.09822097420692444, -0.020615354180336, 0.16834351420402527, 0.11622694134712219, -0.14713652431964874, -0.06904789060354233, 0.10857066512107849, 0.10604387521743774, 0.0010882467031478882, 0.055611297488212585, 0.11573538184165955, -0.059182941913604736, -0.03844830393791199, -0.14163343608379364, -0.0795900896191597], [-0.04712674021720886, -0.13303126394748688, -0.14036224782466888, -0.16530315577983856, 0.12104740738868713, 0.04631511867046356, -0.06788235902786255, -0.11845064908266068, 0.05086357891559601, 0.04124775528907776, -0.16929279267787933, 0.03769084811210632, -0.11793670058250427, 0.17179086804389954, 0.023853972554206848, -0.007099658250808716, 0.06209030747413635, 0.06343303620815277, 0.17137041687965393, 0.06299634277820587, 0.15775561332702637, 0.0331081748008728, 0.028780221939086914, 0.102049320936203, -0.10953924804925919, 0.00591297447681427, 0.18084147572517395, -0.009479984641075134, -0.13000085949897766, -0.004679739475250244], [-0.11376440525054932, -0.06687632203102112, -0.1091223955154419, 0.03228820860385895, 0.0767318606376648, -0.1349955052137375, -0.06463949382305145, -0.17253665626049042, -0.1750802993774414, 0.11504470556974411, -0.114143505692482, 0.14722859859466553, 0.03629016503691673, 0.15968291461467743, 0.07360716909170151, -0.12360396236181259, -0.014747874811291695, -0.15922006964683533, -0.15255485475063324, -0.0876963660120964, -0.05715491250157356, 0.1371661126613617, -0.11836373805999756, -0.2933298945426941, 0.07385957986116409, 0.02497449889779091, 0.10339948534965515, 0.1473509669303894, 0.00855292472988367, -0.08969127386808395], [0.05502302944660187, 0.02969943732023239, 0.04048622027039528, 0.13182008266448975, 0.04186904802918434, 0.15391290187835693, 0.08348395675420761, -0.06726159155368805, -0.06961886584758759, -0.003213754389435053, -0.0656152069568634, 0.0984346941113472, 0.08716528862714767, -0.1250046193599701, 0.0403888039290905, -0.10509604960680008, -0.03561793267726898, -0.00425133528187871, 0.10427899658679962, -0.12630681693553925, 0.05506911873817444, -0.00762159051373601, -0.16687063872814178, -0.024254746735095978, -0.1505553424358368, -0.10479993373155594, 0.0016357596032321453, 0.15870030224323273, -0.16432958841323853, 0.16286860406398773], [0.05107896775007248, 0.033078115433454514, -0.017045555636286736, 0.03189164400100708, -0.18104909360408783, 0.08001994341611862, 0.007039377931505442, 0.15102538466453552, 0.17000527679920197, -0.016632700338959694, -0.02253776788711548, -0.09335514158010483, 0.11443877220153809, -0.017160072922706604, -0.011173401027917862, -0.07804557681083679, -0.12638919055461884, -0.03180227056145668, 0.018148906528949738, 0.06424945592880249, 0.08349073678255081, -0.13091012835502625, -0.08556164801120758, -0.0073925405740737915, -0.11915440857410431, 0.15681007504463196, -0.12527695298194885, 0.10961885750293732, 0.02933523617684841, -0.06884994357824326], [-0.054889798164367676, 0.0008794218301773071, -0.07731695473194122, -0.0005432367324829102, 0.04820871353149414, -0.13727203011512756, -0.13653159141540527, -0.028689995408058167, -0.08247704803943634, 0.17490637302398682, 0.04804132878780365, -0.08996415883302689, 0.11047810316085815, -0.07891906797885895, -0.11371394991874695, -0.1369827389717102, -0.11462076753377914, 0.17426815629005432, -0.179480642080307, -0.07413045316934586, 0.041326358914375305, 0.15645411610603333, -0.11405438929796219, 0.012734279036521912, 0.1681194305419922, 0.10126864910125732, -0.14577855169773102, 0.030058085918426514, 0.1621580421924591, 0.1158108115196228], [0.13276711106300354, -0.04206909239292145, 0.13977724313735962, -0.17179414629936218, -0.10611934214830399, 0.04897540807723999, 0.07175475358963013, 0.1492193639278412, -0.05860558897256851, 0.06281387805938721, -0.08884166926145554, 0.04782074689865112, 0.06804749369621277, -0.07071644812822342, -0.08347438275814056, -0.02832058072090149, 0.18216127157211304, 0.174444317817688, -0.1760271191596985, -0.13084213435649872, 0.13439598679542542, -0.16934587061405182, 0.18032944202423096, 0.05674552917480469, 0.17789438366889954, -0.17855225503444672, -0.029060661792755127, -0.12284286320209503, -0.07706285268068314, 0.15348052978515625], [-0.15648503601551056, -0.09957768023014069, 0.11476016044616699, -0.10954993218183517, -0.17175857722759247, -0.03495746850967407, 0.16256046295166016, -0.1596304476261139, -0.052858754992485046, 0.034600019454956055, -0.021911248564720154, -0.06257058680057526, -0.041946470737457275, 0.036694467067718506, -0.16423888504505157, 0.17528152465820312, -0.06216541677713394, -0.0575912743806839, 0.16735833883285522, -0.11831353604793549, -0.07349763065576553, -0.15492086112499237, -0.13761304318904877, 0.043476685881614685, 0.022983551025390625, -0.07672082632780075, -0.11208123713731766, 0.05526833236217499, 0.028680890798568726, 0.019809186458587646], [-0.10528260469436646, 0.009415149688720703, 0.16787457466125488, 0.009108901023864746, 0.10815310478210449, -0.16239944100379944, -0.1791713386774063, -0.11834820359945297, 0.13725191354751587, -0.003939449787139893, -0.08338993787765503, -0.1789274662733078, 0.14315614104270935, 0.10247877240180969, 0.11653679609298706, -0.16128267347812653, -0.07260778546333313, -0.03659869730472565, -0.16172927618026733, 0.016689419746398926, 0.06740275025367737, 0.02936646342277527, -0.10306718945503235, -0.11744360625743866, 0.16782793402671814, -0.07096504420042038, -0.09180423617362976, 0.1517503559589386, 0.039925798773765564, 0.1243039071559906], [-0.04361164569854736, 0.10699716210365295, -0.16839434206485748, -0.17658531665802002, -0.169157475233078, -0.17830857634544373, 0.1490127146244049, -0.06976500898599625, 0.13400670886039734, 0.057757869362831116, 0.10341125726699829, 0.16484341025352478, -0.12006692588329315, 0.12151128053665161, -0.042453452944755554, -0.09750819951295853, -0.09622396528720856, 0.04069289565086365, -0.00359228253364563, 0.13734093308448792, -0.0954255536198616, -0.05414065718650818, -0.08792533725500107, -0.03482161462306976, -0.06191560626029968, -0.03547652065753937, -0.11036497354507446, -0.006029561161994934, 0.018463537096977234, -0.015222668647766113]], "fc1.bias": [0.14875678718090057, 0.14470914006233215, -0.12638384103775024, -0.16908620297908783, 0.095007985830307, -0.005349785089492798, -0.11755997687578201, -0.1319475769996643, -0.08905940502882004, 0.16423450410366058, -0.023187220096588135, -0.16501177847385406, 0.043412186205387115, 0.06608470529317856, 0.15257686376571655, -0.06167645752429962, -0.17354246973991394, 0.11993983387947083, -0.18067048490047455, 0.11285843700170517, 0.1117430031299591, -0.16440650820732117, -0.03904777765274048, -0.14224503934383392, -0.023538339883089066, 0.04258200153708458, 0.1775624305009842, -0.05505712330341339, 0.11312165856361389, 0.1567109227180481, 0.1345142126083374, -0.06399122625589371], "fc2.weight": [[-0.2646440267562866, 0.15853281319141388, -0.01653924584388733, -0.014776155352592468, -0.16821664571762085, 0.11347021162509918, -0.024387255311012268, 0.03141576051712036, -0.020654737949371338, -0.1678355485200882, -0.05066688358783722, -0.018785901367664337, -0.23866066336631775, -0.024840019643306732, 0.031821295619010925, -0.13541755080223083, 0.03929441049695015, -0.037135083228349686, -0.1307026743888855, -0.18044520914554596, -0.13558357954025269, -0.0877995640039444, -0.05860940366983414, 0.15116049349308014, 0.021577076986432076, -0.03629211336374283, -0.06845293939113617, -0.10657962411642075, -0.13710026443004608, 0.01624692976474762, -0.013725876808166504, -0.1301141232252121], [-0.12946717441082, -0.15345966815948486, 0.05447526276111603, -0.16378389298915863, 0.14604498445987701, -0.08790791779756546, 0.03858056664466858, 0.1485017091035843, -0.08928607404232025, -0.12211254239082336, 0.06878603994846344, -0.1550317257642746, 0.1350216418504715, 0.08608083426952362, -0.0020750313997268677, 0.1706303209066391, 0.15511412918567657, -0.13402360677719116, -0.13838398456573486, -0.1285979151725769, -0.01464320719242096, -0.1345786452293396, 0.04895579814910889, -0.01707737147808075, 0.04882475733757019, 0.03376145660877228, -0.1218072772026062, 0.03485819697380066, -0.014295205473899841, -0.01568906009197235, 0.06877949833869934, 0.16069738566875458], [0.027965590357780457, -0.16490580141544342, 0.03204064071178436, -0.12048523128032684, -0.07644038647413254, 0.10129617154598236, 0.12297134101390839, 0.10813035070896149, 0.07494176924228668, 0.20726367831230164, -0.09177345037460327, 0.06599042564630508, 0.030689120292663574, 0.04577486217021942, -0.0025448203086853027, 0.06059068441390991, -0.08387050777673721, -0.03933076560497284, 0.1239159107208252, 0.18058596551418304, -0.00575663149356842, -0.016689328476786613, -0.08184418082237244, -0.12125667184591293, -0.17087115347385406, -0.10804525017738342, 0.09597526490688324, 0.17346175014972687, 0.08255209028720856, 0.008536100387573242, -0.16632771492004395, 0.0675213634967804], [0.1793716996908188, -0.062331415712833405, -0.11919619143009186, -0.13881650567054749, -0.04234008491039276, 0.11807195842266083, 0.08379341661930084, 0.073616161942482, 0.014866963028907776, 0.17838908731937408, 0.04452391341328621, 0.04167237505316734, 0.07858269661664963, -0.028438294306397438, 0.04476939141750336, -0.11486639082431793, -0.12788960337638855, 0.0769832581281662, -0.13163146376609802, 0.19880086183547974, -0.14502747356891632, -0.109806589782238, 0.059684693813323975, 0.10910113155841827, -0.10027862340211868, 0.14920607209205627, 0.032458703964948654, -0.027723222970962524, -0.14202269911766052, -0.09926998615264893, 0.12701652944087982, 0.14939932525157928], [-0.22609663009643555, 0.15411119163036346, 0.0842343121767044, 0.12471608817577362, 0.13304276764392853, 0.011786013841629028, -0.17505225539207458, 0.14301754534244537, -0.032822802662849426, 0.0008722320199012756, -0.0917317196726799, -0.0387682281434536, 0.11329826712608337, 0.10388143360614777, -0.0015275925397872925, -0.17005178332328796, -0.08335176110267639, -0.0012111738324165344, -0.0375487394630909, -0.05140600726008415, 0.004597842693328857, 0.06555329263210297, 0.14934216439723969, -0.07352150976657867, 0.0939142107963562, -0.10563921928405762, -0.09559577703475952, -0.022463694214820862, -0.1380801796913147, 0.050911515951156616, 0.06317387521266937, 0.0358748733997345], [0.08555109798908234, 0.004881083965301514, 0.07917706668376923, 0.16634003818035126, -0.10961202532052994, 0.14660553634166718, -0.0656580850481987, -0.020254358649253845, -0.04414534568786621, 0.02469050884246826, 0.08152900636196136, 0.05922003090381622, -0.12513461709022522, 0.03237670660018921, -0.14777715504169464, 0.0020971596240997314, -0.09824343770742416, 0.08259688317775726, 0.026313811540603638, -0.045066505670547485, -0.06545355170965195, -0.08286765962839127, 0.034100890159606934, 0.0832652598619461, -0.07160338759422302, -0.1293575018644333, -0.17483970522880554, -0.06000448763370514, -0.01603648066520691, -0.16422045230865479, -0.08032466471195221, -0.1060149148106575], [-0.12522591650485992, -0.11310665309429169, -0.10543988645076752, -0.052828945219516754, -0.08595537394285202, -0.058857694268226624, 0.12202523648738861, 0.05215872824192047, -0.07048040628433228, -0.2450924664735794, 0.02013176679611206, -0.11098093539476395, -0.10885440558195114, 0.0201607346534729, -0.16713134944438934, -0.11362383514642715, 0.01690392941236496, -0.13411268591880798, 0.13652107119560242, 0.06519441306591034, -0.10960955917835236, -0.1190425455570221, -0.01986117660999298, 0.15356068313121796, 0.1297740638256073, -0.11815086752176285, 0.07030991464853287, -0.09186537563800812, 0.011630892753601074, -0.1764770895242691, 0.16638724505901337, -0.14144720137119293], [-0.20442236959934235, 0.15129120647907257, 0.06892518699169159, 0.05964350700378418, -0.045132577419281006, -0.0780206248164177, 0.030355408787727356, -0.17067892849445343, -0.04626929759979248, -0.18763771653175354, 0.05703521519899368, 0.021343477070331573, 0.05430912226438522, -0.05195162817835808, 0.01785467565059662, -0.14642000198364258, 0.061705127358436584, 0.056072212755680084, -0.057533148676157, -0.061909861862659454, -0.09293320775032043, 0.004256982356309891, -0.1535251885652542, 0.03851015865802765, 0.028860988095402718, 0.08054083585739136, -0.24554647505283356, 0.1282881647348404, 0.08094750344753265, -0.10347291082143784, 0.1706375628709793, 0.043490126729011536], [0.05097644776105881, 0.00649753212928772, 0.088569775223732, -0.08743243664503098, 0.09372080862522125, -0.10526859760284424, -0.018933013081550598, 0.02799813449382782, 0.0018615573644638062, 0.1974855214357376, 0.09141278266906738, 0.2051307111978531, -0.02869836986064911, -0.006317881867289543, -0.06109786033630371, -0.14281922578811646, 0.15172813832759857, 0.03891010954976082, -0.1362602859735489, -0.10662009567022324, -0.15940630435943604, 0.05998416990041733, 0.1297064572572708, -0.06273939460515976, 0.06421040743589401, 0.00200601271353662, -0.016043107956647873, -0.12124741822481155, -0.16060692071914673, -0.15452469885349274, -0.06269347667694092, -0.0772271454334259], [0.061638444662094116, -0.13696768879890442, 0.028309091925621033, -0.022885575890541077, -0.027416646480560303, -0.10852061212062836, -0.14414651691913605, -0.04106220602989197, 0.10764433443546295, 0.11256979405879974, -0.05992824584245682, -0.1076761782169342, -0.16491930186748505, -0.04979759454727173, 0.09913359582424164, -0.16950897872447968, -0.172465980052948, -0.14331355690956116, 0.057331666350364685, 0.005518049001693726, -0.13578301668167114, -0.018791809678077698, -0.09792082756757736, -0.10170581936836243, -0.046127259731292725, -0.14427100121974945, -0.04201121628284454, -0.08522448688745499, 0.09572027623653412, 0.11302609741687775, -0.10616879165172577, 0.09388856589794159], [-0.19041264057159424, -0.009264767169952393, 0.10737435519695282, -0.06889039278030396, -0.12115450203418732, 0.16688500344753265, 0.14529262483119965, -0.07138801366090775, -0.052867911756038666, 0.09742655605077744, -0.09218566119670868, -0.031398069113492966, -0.04742644354701042, 0.008354175835847855, 0.17593462765216827, -0.14749300479888916, -0.12985345721244812, -0.12166896462440491, 0.0518513098359108, -0.21093712747097015, 0.04138483107089996, 0.05689377710223198, -0.013246521353721619, -0.018657952547073364, -0.04118414223194122, -0.13152241706848145, 0.02330080419778824, -0.1440526843070984, -0.059466779232025146, -0.11435443162918091, 0.13555742800235748, 0.1480104774236679], [0.04914867505431175, 0.1672193557024002, -0.005064666271209717, -0.14928802847862244, -0.044616058468818665, 0.11758299171924591, 0.15549121797084808, -0.1283492147922516, 0.05474342405796051, -0.009978331625461578, 0.02325393259525299, 0.11288952827453613, 0.12311746180057526, -0.2057976871728897, -0.1255086362361908, 0.05334657430648804, 0.09494033455848694, -0.07877058535814285, -0.04379842057824135, -0.1122317761182785, 0.038661763072013855, 0.07575702667236328, -0.17596197128295898, 0.07075203955173492, -0.007045801728963852, -0.026405353099107742, 0.033856578171253204, -0.053876884281635284, 0.03852123022079468, 0.005314677953720093, -0.0642194077372551, -0.15110357105731964], [0.0681634470820427, 0.14968688786029816, 0.05130642652511597, -0.023403450846672058, -0.16773273050785065, 0.1169445663690567, 0.04646405577659607, 0.0024437308311462402, 0.07826094329357147, 0.21131038665771484, 0.10988383740186691, -0.10488244891166687, 0.12175247818231583, 0.20996657013893127, -0.006313696503639221, 0.026288360357284546, 0.039347998797893524, 0.035622645169496536, 0.10211978852748871, 0.04089343920350075, 0.09210602939128876, 0.09681180119514465, -0.01316593587398529, -0.01621389389038086, -0.1419908106327057, -0.04395319148898125, 0.12723557651042938, 0.1393841654062271, 0.0008323341608047485, -0.01816636323928833, -0.0704948827624321, 0.14962397515773773], [-0.10102620720863342, -0.005875930190086365, 0.030491411685943604, -0.14943595230579376, 0.13921169936656952, -0.1013096421957016, 0.0015058815479278564, 0.12419553101062775, 0.1693742424249649, -0.05471579730510712, -0.1537877917289734, -0.10677964985370636, 0.1267404705286026, 0.006063565611839294, -0.1568930745124817, 0.11273165047168732, -0.1552518606185913, 0.08652947843074799, 0.015807896852493286, 0.12604017555713654, -0.12131667137145996, 0.0335843563079834, 0.09040917456150055, 0.05766932666301727, 0.14131291210651398, -0.15165501832962036, 0.12115253508090973, 0.029786482453346252, 0.10991208255290985, 0.06970907747745514, 0.08068682253360748, -0.020900502800941467], [0.0299127958714962, -0.08044063299894333, -0.09859466552734375, 0.11428628861904144, 0.1652054339647293, 0.041446879506111145, -0.05957667529582977, 0.11267070472240448, 0.10748369991779327, 0.2269299179315567, -0.02768750488758087, 0.02044239640235901, 0.11755585670471191, 0.005551721900701523, -0.10459060966968536, 0.03050316870212555, 0.12271676957607269, 0.12639738619327545, 0.16897107660770416, -0.04033133387565613, 0.07255984842777252, 0.1758405864238739, -0.10722082108259201, 0.13195253908634186, -0.11121554672718048, -0.12887370586395264, 0.15213543176651, -0.09313564002513885, 0.06097795069217682, 0.09486742317676544, -0.15517346560955048, -0.07386136054992676], [-0.119951032102108, 0.03847461938858032, -0.1360187977552414, 0.10870523750782013, 0.10464383661746979, 0.13021887838840485, -0.07706407457590103, -0.047448232769966125, 0.14543519914150238, 0.19856961071491241, -0.031155027449131012, 0.18739931285381317, -0.059448011219501495, 0.01819762773811817, 0.10023815929889679, 0.15434406697750092, 0.1520112156867981, -0.018806088715791702, 0.09796188026666641, 0.20848368108272552, 0.09474928677082062, 0.08054162561893463, -0.09524919837713242, 0.11774952709674835, 0.10824137926101685, 0.1239570900797844, 0.07472071051597595, -0.087073914706707, 0.05332115292549133, 0.07165630161762238, -0.0354294627904892, -0.06794948875904083]], "fc2.bias": [-0.12747488915920258, 0.0029048025608062744, -0.14702105522155762, -0.09295176714658737, 0.10355298966169357, 0.04336293041706085, -0.12591953575611115, 0.04267490282654762, 0.06049907207489014, 0.10471709072589874, -0.023384982720017433, 0.1547594964504242, 0.157731294631958, 0.03646387159824371, -0.1060546413064003, -0.023351546376943588], "fc3.weight": [[0.0838647335767746, 0.07495978474617004, -0.18204249441623688, -0.2408028095960617, -0.05309849977493286, -0.16250330209732056, -0.010287463665008545, 0.06939534097909927, -0.187263622879982, 0.061522990465164185, 0.03549657762050629, -0.3049377501010895, -0.28663235902786255, 0.15546131134033203, -0.2496977597475052, -0.16285181045532227]], "fc3.bias": [-0.18560293316841125]}