{"fc1.weight": [[0.2893249988555908, 0.40232446789741516, -0.15322060883045197, 0.2979555130004883, 0.15577249228954315], [0.13770931959152222, -0.3014973998069763, -0.3578641414642334, 0.07636892795562744, 0.2588930130004883], [-0.1928088515996933, 0.2844271957874298, -0.18160617351531982, -0.14734743535518646, -0.0024012962821871042], [-0.3784829080104828, 0.2396267056465149, -0.11974913626909256, -0.09190815687179565, 0.24612224102020264], [0.11156867444515228, 0.26011165976524353, -0.26427245140075684, 0.011547509580850601, -0.4382239878177643], [-0.1475507915019989, 0.27563801407814026, 0.03338637575507164, -0.20976974070072174, -0.3031647801399231], [0.5615233778953552, 0.7571041584014893, 0.793384850025177, 0.3815476596355438, 0.3251279890537262], [-0.44470202922821045, -0.2478158324956894, -0.3553839325904846, -0.30197495222091675, 0.030501725152134895], [0.25831592082977295, 0.6039844155311584, 0.4712270200252533, -0.049831077456474304, 0.5294610857963562], [0.9746184349060059, 0.9535746574401855, 0.9166617393493652, 0.5510333180427551, 0.9397522807121277], [-0.05084085464477539, 0.025194287300109863, 0.30859383940696716, -0.46065372228622437, 0.19214998185634613], [0.20755422115325928, -0.06479860097169876, -0.08314532041549683, 0.05281605198979378, -0.406505286693573], [-0.2304772138595581, 0.05699389427900314, -0.4677896201610565, -0.22180530428886414, 0.25791436433792114], [0.0748102143406868, 0.21214090287685394, 0.3662757873535156, 0.199212446808815, 0.5500665307044983], [-0.3087107539176941, -0.3147614598274231, 0.27238979935646057, -0.08300366252660751, -0.30641186237335205], [0.49482256174087524, 0.11242812126874924, 0.042936377227306366, 0.24965223670005798, -0.1821959912776947], [-0.1927792727947235, 0.20300479233264923, -0.0827522799372673, -0.4351026713848114, -0.3894444406032562], [-0.13645434379577637, -0.42092224955558777, 0.416700154542923, 0.019861551001667976, 0.04391026496887207], [-0.4732089340686798, -0.4958658218383789, -0.5115904211997986, -0.7090171575546265, -0.6008411645889282], [-0.0350961871445179, 0.6078099012374878, 0.6341413855552673, 0.5265669226646423, 0.7286736965179443], [0.40347185730934143, 0.3280605971813202, -0.40791043639183044, 0.23842249810695648, -0.45375800132751465], [-0.2227759212255478, 0.019652873277664185, -0.15178793668746948, -0.0594811737537384, 0.04670420289039612], [0.06526720523834229, -0.05160507559776306, 0.34982144832611084, -0.37844061851501465, -0.2174750566482544], [0.006999552249908447, -0.12284943461418152, -0.24080893397331238, 0.3986639380455017, -0.1786806583404541], [-0.14806890487670898, -0.41102251410484314, -0.43646612763404846, -0.6551242470741272, -0.07569093257188797], [-0.015121938660740852, 0.0706569030880928, 0.08423294126987457, -0.1927846074104309, 0.0759512186050415], [0.6452533006668091, 0.08891893923282623, 0.44683730602264404, 0.459387868642807, 0.3915724754333496], [-0.43882879614830017, 0.19076800346374512, -0.21472346782684326, -0.09710720181465149, 0.05514538288116455], [-0.7369664907455444, -0.6843211054801941, -0.2646092474460602, -0.49023494124412537, -0.5612877607345581], [-0.5166794657707214, -0.14812110364437103, -0.3988742530345917, -0.6045781373977661, -0.22098687291145325], [-0.16577346622943878, -0.16674135625362396, -0.2764883041381836, -0.10876069962978363, -0.2594655454158783], [-0.3633585572242737, -0.3538816273212433, -0.18324728310108185, -0.1031583920121193, -0.28066951036453247]], "fc1.bias": [-0.20696192979812622, -0.39934995770454407, -0.18992994725704193, -0.3404531180858612, -0.26912835240364075, -0.08673148602247238, -0.46689799427986145, 0.27187830209732056, -0.270275741815567, -0.9374583959579468, -0.1675155758857727, -0.029032213613390923, 0.24160726368427277, -0.4272465109825134, -0.00923060905188322, -0.2344694584608078, 0.8818947076797485, -0.38477861881256104, 1.7389240264892578, -0.7347432374954224, -0.3159758746623993, -0.012956738471984863, -0.43804872035980225, -0.34032198786735535, 1.2698619365692139, -0.10405518859624863, -0.6926113367080688, -0.20981907844543457, 1.8281062841415405, 1.371383786201477, 0.35034433007240295, 0.891596794128418], "fc2.weight": [[-0.03984883800148964, -0.04198484122753143, 0.07711087167263031, -0.11374025046825409, 0.06959469616413116, -0.16764359176158905, -0.021744808182120323, -0.01841956377029419, -0.04789191111922264, 0.13815562427043915, -0.13260340690612793, 0.10447630286216736, 0.1445387899875641, 0.06793201714754105, 0.1115582287311554, 0.06326046586036682, -0.008167987689375877, 0.15248101949691772, -0.13069099187850952, 0.14334392547607422, 0.0931423008441925, -0.04363526403903961, -0.06391371041536331, -0.14842669665813446, -0.17709019780158997, 0.10546393692493439, 0.038078561425209045, -0.06026177108287811, -0.14134615659713745, 0.018147312104701996, 0.02853219397366047, 0.12076549232006073], [0.10894382745027542, -0.00026445090770721436, -0.156885027885437, -0.1563745141029358, -0.1026732325553894, 0.10437855869531631, 0.717169463634491, 0.17260654270648956, 0.5055480003356934, 1.1832419633865356, 0.17234422266483307, -0.12467768043279648, -0.14607709646224976, 0.312112957239151, 0.153926819562912, 0.22294528782367706, -0.2735176086425781, -0.12081277370452881, -1.049681305885315, 0.5965927839279175, -0.030673019587993622, 0.0038224607706069946, -0.06791174411773682, -0.13350790739059448, -0.7013719081878662, 0.10120265930891037, 0.41668862104415894, -0.03302687406539917, -0.8811994791030884, -0.6135321259498596, 0.030292512848973274, -0.3522372245788574], [0.06897097080945969, 0.07450278103351593, 0.1198873296380043, -0.15630009770393372, 0.12863892316818237, -0.0950140655040741, 0.6209568977355957, -0.02229333482682705, 0.4742245674133301, 0.7918174266815186, 0.1756027638912201, -0.07204242050647736, -0.2798573970794678, 0.17859619855880737, 0.03597939759492874, -0.006023061461746693, -0.27216649055480957, 0.07229764014482498, -0.7125436663627625, 0.5209092497825623, -0.10026437789201736, -0.026289477944374084, 0.1360030323266983, -0.14751656353473663, -0.3605337142944336, -0.08808661252260208, 0.3159298896789551, -0.16703234612941742, -0.8249656558036804, -0.5694840550422668, 0.0809646025300026, -0.30575913190841675], [-0.019316116347908974, 0.11561720073223114, 0.003067084588110447, -0.007054240442812443, 0.060769010335206985, -0.017128273844718933, 0.06056418642401695, -0.08400659263134003, 0.02280375361442566, -0.17752079665660858, 0.12385967373847961, 0.03875650092959404, -0.013780162669718266, 0.012288828380405903, -0.09187740087509155, -0.11929874867200851, 0.1711006462574005, 0.03019479475915432, 0.17967617511749268, -0.03709521144628525, 0.1409732550382614, 0.14719612896442413, -0.10319997370243073, -0.15635299682617188, 0.05784576013684273, -0.05639614537358284, -0.22102570533752441, -0.06178797781467438, 0.19548404216766357, 0.09948910772800446, 0.15137721598148346, 0.11338863521814346], [0.17079244554042816, -0.11644255369901657, 0.021971136331558228, -0.037134215235710144, 0.17170901596546173, -0.1582619547843933, -0.07189914584159851, 0.122339628636837, -0.15598931908607483, -0.020121783018112183, 0.09416086971759796, -0.13950832188129425, -0.05063917487859726, 0.15302583575248718, 0.09509845823049545, -0.11643142998218536, 0.09071674942970276, -0.02872014045715332, 0.13482429087162018, 0.02878052555024624, 0.08662857115268707, 0.08450077474117279, 0.0455445796251297, 0.06073687970638275, 0.006212520878762007, -0.04311929643154144, 0.0029500259552150965, 0.002136901021003723, 0.015612917952239513, -0.13962437212467194, 0.10758858174085617, -0.007947972975671291], [0.13904549181461334, -0.04345899820327759, -0.12000653147697449, 0.11271647363901138, 0.07888340950012207, 0.07354768365621567, 0.27021095156669617, 0.1075214296579361, 0.13936203718185425, 0.5098301768302917, 0.17769496142864227, -0.030014891177415848, 0.008427310734987259, 0.13932029902935028, 0.13967153429985046, -0.10761409252882004, -0.3272210955619812, -0.041756536811590195, -0.44909051060676575, 0.40110158920288086, 0.10187731683254242, 0.07529260218143463, 0.06913161277770996, -0.13456201553344727, -0.2551180422306061, 0.0854819193482399, 0.2571262717247009, -0.025548219680786133, -0.5027258396148682, -0.3404634892940521, -0.16687420010566711, -0.0917745903134346], [0.04564881697297096, 0.04110158979892731, 0.14155682921409607, 0.024639196693897247, 0.13131780922412872, -0.09789585322141647, 0.14779533445835114, -0.04646160453557968, 0.08921222388744354, -0.1181759387254715, 0.005481339059770107, -0.005186388734728098, -0.08145122975111008, -0.0015020446153357625, -0.11853527277708054, -0.15535029768943787, 0.10140224546194077, -0.030480720102787018, -0.06218995898962021, -0.015652643516659737, -0.03144005313515663, -0.06981796026229858, 0.04098378121852875, 0.01228959858417511, 0.030317232012748718, 0.008361615240573883, -0.07352041453123093, -0.16749614477157593, 0.031005321070551872, 0.09566701948642731, 0.08128425478935242, -0.125131294131279], [-0.06324633210897446, 0.13498030602931976, -0.0562492311000824, 0.03316448628902435, -0.14589565992355347, -0.07455208152532578, 0.016508452594280243, 0.00040922965854406357, 0.07885265350341797, 0.3321891129016876, -0.032084159553050995, 0.11996711045503616, 0.05014711245894432, 0.21298615634441376, -0.17601099610328674, 0.039316046983003616, -0.05546928942203522, 0.08606091886758804, -0.129378542304039, 0.19252952933311462, -0.04846060276031494, -0.0416482537984848, -0.10854977369308472, 0.016927331686019897, -0.24009907245635986, 0.03596028685569763, -0.00721551850438118, 0.06197230517864227, -0.2943211793899536, -0.08713453263044357, -0.11313287168741226, 0.05440138280391693], [-0.23268762230873108, -0.04390022158622742, 0.13666367530822754, -0.16990600526332855, -0.08068089932203293, -0.10929561406373978, -0.27332425117492676, -0.021335799247026443, -0.09790822863578796, -0.4982965886592865, -0.16599592566490173, 0.07920810580253601, 0.09808345139026642, -0.3348848819732666, 0.0205125380307436, -0.1985054761171341, 0.538686215877533, -0.1590496152639389, 0.8655305504798889, -0.46294865012168884, 0.15563108026981354, 0.00927308201789856, 0.10545684397220612, 0.03452107310295105, 0.704024076461792, -0.007653312291949987, -0.5141099691390991, 0.025922879576683044, 1.0652368068695068, 0.8526403307914734, 0.0531853549182415, 0.5680142045021057], [-0.0975552648305893, -0.03123265504837036, 0.10415489971637726, 0.138205423951149, -0.09080228209495544, -0.0710480585694313, 0.02027924358844757, 0.016731515526771545, -0.15407654643058777, 0.1374882310628891, -0.13360576331615448, 0.06515093147754669, 0.02597913146018982, -0.08700241148471832, 0.04954490065574646, 0.08759073913097382, -0.00031460821628570557, -0.15937189757823944, -0.00370180606842041, -0.01834721863269806, -0.06988286972045898, -0.1205858439207077, -0.06588587164878845, -0.07178971916437149, -0.08707376569509506, 0.1616239994764328, -0.14097663760185242, 0.07590426504611969, -0.10610281676054001, 0.036452457308769226, -0.08412282913923264, 0.13212724030017853], [-0.01303797960281372, 0.01555626094341278, 0.08320309221744537, 0.04932135343551636, 0.138589546084404, -0.16023261845111847, -0.1669895201921463, 0.01522168517112732, -0.038403600454330444, -0.13538038730621338, -0.018445447087287903, -0.06646347045898438, 0.0921926349401474, -0.15060777962207794, -0.14516697824001312, -0.014765262603759766, -0.01772904396057129, 0.08912898600101471, -0.1106252372264862, -0.11316458135843277, -0.07213140279054642, 0.12957365810871124, 0.11699707806110382, 0.0747554749250412, -0.07014065980911255, -0.05020773410797119, 0.13872013986110687, 0.010648593306541443, -0.13190676271915436, 0.09159965813159943, -0.09418235719203949, 0.1468462198972702], [-0.16276206076145172, 0.10403291881084442, 0.16975347697734833, -0.06866788119077682, 0.0034744851291179657, 0.005980048328638077, -0.028755445033311844, -0.07397963851690292, 0.04373854771256447, -0.23291659355163574, -0.08729496598243713, 0.08945587277412415, 0.2125556468963623, -0.13414588570594788, -0.10025930404663086, -0.21402987837791443, 0.33581018447875977, -0.15546391904354095, 0.5889726877212524, -0.19438549876213074, -0.10406365990638733, 0.04089638590812683, 0.015217959880828857, 0.058034688234329224, 0.4069269299507141, -0.12752199172973633, -0.19164523482322693, -0.15177682042121887, 0.4910520911216736, 0.47723594307899475, -0.07702137529850006, 0.31125202775001526], [0.31187328696250916, -0.09335598349571228, 0.05210741236805916, -0.01859270967543125, -0.000911658862605691, 0.07825988531112671, 0.6529625654220581, 0.024358632043004036, 0.32019081711769104, 1.0389808416366577, 0.17137862741947174, 0.1337781548500061, -0.13428683578968048, 0.36906614899635315, -0.05393174663186073, 0.20010186731815338, -0.34484192728996277, 0.09292735159397125, -0.9183964729309082, 0.6224974393844604, -0.10348665714263916, -0.0607353150844574, -0.12837935984134674, -0.14761456847190857, -0.7022877931594849, -0.005854231305420399, 0.5943803191184998, -0.015470445156097412, -0.9077044129371643, -0.7293019890785217, 0.026764675974845886, -0.29936859011650085], [-0.0020163333974778652, -0.06547439098358154, -0.14801427721977234, 0.1312962919473648, -0.09419281035661697, -0.1683492660522461, -0.17011351883411407, 0.017154913395643234, 0.13121582567691803, -0.16793948411941528, 0.1597219556570053, 0.12972210347652435, -0.03818165510892868, -0.12640219926834106, 0.11944866925477982, 0.07328785955905914, -0.01830643229186535, -0.12886780500411987, -0.0607963502407074, 0.07887085527181625, -0.04461774230003357, -0.017278864979743958, -0.1701502650976181, -0.07690733671188354, -0.04447713866829872, -0.08555679768323898, 0.11781935393810272, -0.1211714893579483, 0.13161733746528625, 0.11986973136663437, 0.1524423211812973, -0.08271864801645279], [-0.00038833802682347596, 0.15944723784923553, -0.010199204087257385, -0.14761647582054138, 0.16064371168613434, -0.1148708313703537, 0.042509958148002625, -0.1305648684501648, -0.14352627098560333, -0.06007479131221771, -0.16580529510974884, -0.005498183891177177, 0.13942871987819672, 0.006569866091012955, -0.10464955121278763, -0.1446230113506317, -0.02541421726346016, 0.038957759737968445, 0.005678522400557995, -0.03432869166135788, -0.03986024484038353, -0.10548936575651169, -0.13823369145393372, -0.10139691084623337, 0.09158570319414139, 0.1001109927892685, 0.17272692918777466, 0.05982063710689545, -0.1662674844264984, 0.14523085951805115, -0.16210535168647766, 0.08141571283340454], [0.24894799292087555, 0.09650932252407074, 0.17287525534629822, 0.039658073335886, 0.15164914727210999, -0.03930407017469406, 0.40644335746765137, 0.10910433530807495, 0.22543703019618988, 0.43121013045310974, -0.03347551077604294, -0.16053719818592072, -0.2008289098739624, 0.2973007559776306, 0.127020463347435, 0.011653726920485497, -0.07198896259069443, -0.06757041811943054, -0.5478923916816711, 0.2212623953819275, -0.11423948407173157, 0.14619119465351105, 0.1477435976266861, -0.06293223798274994, -0.4033995568752289, -0.06884126365184784, 0.42925289273262024, 0.03249165415763855, -0.4360242486000061, -0.3799891471862793, 0.06489783525466919, -0.1470206379890442]], "fc2.bias": [0.06378842145204544, -0.703461229801178, -0.4693973958492279, 0.2378826141357422, -0.07179251313209534, -0.16685955226421356, -0.04983840510249138, -0.09255676716566086, 1.1530402898788452, -0.04898326098918915, 0.004077017307281494, 0.4060104787349701, -0.5208836197853088, -0.0516636036336422, -0.03966710343956947, -0.27300068736076355], "fc3.weight": [[0.19031473994255066, 2.4863007068634033, 1.905463457107544, -0.48573750257492065, 0.2028229683637619, 1.120848536491394, -0.015073333866894245, 0.5120091438293457, -2.4367759227752686, 0.20770969986915588, -0.23460879921913147, -1.204329490661621, 2.374986171722412, 0.06327547878026962, 0.19247964024543762, 1.249860405921936]], "fc3.bias": [-1.2906097173690796]}